/location/country/form_of_government	-0.093263	0.034720	-0.015882	0.041707	0.126723	0.029080	-0.041194	-0.093087	0.063132	0.059446	0.097347	0.158322	-0.144095	0.072752	-0.011627	0.084007	0.129717	-0.082142	-0.057032	-0.037552	0.065874	0.123684	-0.053873	-0.047249	0.067448	-0.054059	-0.032098	-0.026396	0.032023	-0.135095	0.132428	-0.101272	-0.066549	-0.072230	0.048492	-0.021251	0.180355	-0.070878	0.190736	0.011155	0.152132	-0.113148	0.063073	0.128736	0.073912	0.050492	0.088954	-0.059446	0.163275	0.016453	0.026945	-0.040119	-0.050867	0.053968	0.128975	0.082974	0.140340	0.042078	-0.009856	0.053745	0.005816	0.015518	0.095033	0.118270	0.109039	0.075601	-0.033760	-0.030216	0.041594	0.102598	-0.020214	0.091266	0.009601	0.035379	-0.170743	-0.004985	0.035609	-0.005711	0.065822	0.008020	-0.008517	-0.112701	-0.110062	0.070494	0.119073	-0.112346	0.021428	-0.010995	0.152997	0.089706	-0.050157	-0.111128	-0.027133	-0.105669	0.141520	-0.053522	0.123321	0.152416	-0.037717	0.018136	
/tv/tv_program/regular_cast./tv/regular_tv_appearance/actor	0.111939	0.034829	-0.030379	0.046219	0.080496	-0.169403	0.002293	0.017508	0.012159	0.035614	0.120939	-0.153964	-0.014645	0.118086	0.154665	-0.079616	0.100865	-0.010166	0.080917	-0.155751	-0.052794	0.037727	0.069237	0.002756	-0.089632	0.068638	0.146313	-0.055844	-0.095015	-0.059802	0.034431	0.118415	-0.096469	0.158330	0.037521	-0.050744	-0.106383	0.263182	0.105099	0.007982	-0.091701	-0.027727	0.125353	-0.003889	-0.010917	-0.074099	0.090065	0.144234	0.048735	0.018074	-0.050700	-0.055697	0.017616	-0.268402	0.090689	-0.054189	0.033450	0.040412	0.064549	-0.075619	-0.186377	-0.092606	-0.158683	-0.126794	0.078722	-0.102914	-0.124134	-0.037320	-0.125146	-0.162959	-0.142620	-0.004576	-0.038178	-0.049646	-0.010395	-0.023799	0.011490	-0.126131	-0.087323	0.087053	-0.088604	0.009046	0.062745	0.137676	-0.167477	0.144121	0.025838	0.101201	0.022820	0.091792	0.069366	0.022721	0.012986	0.075516	-0.039117	0.063054	-0.044368	0.025501	-0.003680	0.136461	
/media_common/netflix_genre/titles	0.021815	-0.082293	0.085122	0.059574	0.019870	0.183863	-0.043339	0.030662	0.113982	0.111954	-0.110311	0.120465	-0.126449	-0.106511	-0.051765	0.136398	-0.115719	0.056876	-0.143158	0.199376	0.040286	0.149146	-0.110399	-0.133088	0.139746	-0.099883	-0.121595	0.103376	0.124413	-0.083857	0.056921	0.056098	-0.092417	-0.000699	0.105826	0.104195	0.117233	0.024887	-0.177035	0.054866	-0.069352	-0.045586	-0.096656	0.165172	-0.071959	0.084637	0.048701	-0.086530	0.184977	0.170743	0.012268	0.103154	0.026427	0.061034	0.025169	-0.111173	0.084496	-0.175942	-0.076575	-0.007734	-0.066391	-0.035184	0.075519	0.141172	0.091630	0.099168	0.002085	-0.142179	0.111541	-0.027529	-0.106566	-0.080773	0.027609	-0.055282	-0.020613	0.115966	-0.074730	0.193329	0.095845	0.113330	0.106810	-0.026286	-0.000934	-0.021429	0.079170	-0.121134	0.021199	0.108475	-0.032271	0.083378	-0.006279	-0.039556	0.122313	-0.089385	0.119692	0.162086	0.049127	-0.183362	-0.019391	0.089768	
/award/award_winner/awards_won./award/award_honor/award_winner	0.002412	-0.007594	0.033040	0.012010	0.024271	-0.033007	0.007746	0.003862	-0.002794	0.013634	0.021141	0.005486	-0.013348	-0.007233	-0.011162	-0.011250	0.023835	0.005938	-0.014514	0.001200	0.040706	0.012483	0.018133	-0.019264	0.000057	-0.012931	0.007969	-0.010005	0.005855	0.000333	0.003979	-0.000263	-0.000658	-0.023759	-0.007102	0.027662	-0.003239	-0.011657	-0.007575	0.006533	0.006775	-0.007329	0.003945	0.000924	-0.017366	0.024552	0.017355	0.000450	0.007396	0.006405	-0.000678	0.006567	-0.011048	0.014939	-0.011325	-0.010296	-0.004447	0.006696	0.005938	0.000370	0.014714	-0.018605	0.013426	-0.009481	0.009594	-0.007325	-0.006042	0.000219	-0.017504	-0.014427	-0.015331	0.000901	-0.001539	0.016306	-0.019575	0.004699	-0.000661	0.013559	0.023608	-0.004557	-0.000554	-0.015425	0.014240	0.007588	0.022244	-0.016265	0.009880	-0.000571	-0.014348	0.005551	-0.004326	0.000146	-0.022510	0.008368	0.003714	0.010071	0.009260	-0.014354	-0.008426	0.023857	
/soccer/football_team/current_roster./sports/sports_team_roster/position	0.072289	0.143269	0.114477	0.047961	-0.168511	-0.064607	-0.078543	-0.077778	0.154930	0.037768	0.122605	0.189288	-0.009168	0.115674	0.021992	0.168715	0.092864	-0.060403	-0.114817	0.099268	-0.116149	0.008920	-0.159258	0.076296	-0.081572	-0.076058	0.120936	0.105773	0.028253	0.030031	0.100227	-0.131117	0.057796	-0.006800	-0.099665	0.020714	-0.061329	0.189914	-0.037499	-0.030485	0.178098	-0.086416	-0.073903	-0.001049	-0.113611	0.126742	0.114237	0.014148	-0.009407	0.081477	0.078648	0.029968	-0.120272	0.108155	0.019222	0.109373	0.073638	-0.027638	0.017975	-0.015520	0.114688	-0.174884	-0.154981	-0.049026	-0.007994	0.139626	0.129066	0.131931	-0.029718	-0.138277	-0.058928	-0.037000	-0.009142	0.040510	0.016206	0.120207	0.025730	0.124704	-0.047235	-0.101742	-0.120893	-0.039391	0.088497	-0.179889	-0.117314	-0.025302	0.022305	-0.113441	0.092242	0.183754	-0.102209	0.187583	0.026066	0.044215	0.132082	0.028513	0.134307	-0.062039	-0.127264	-0.124829	
/sports/sports_position/players./soccer/football_roster_position/team	-0.087509	-0.096735	-0.095847	0.078762	0.111029	0.081823	0.081109	0.131964	-0.154859	-0.076899	-0.150209	-0.122127	-0.028836	-0.128323	0.066709	-0.117184	-0.179773	0.029663	-0.005621	-0.197719	0.069062	0.009217	0.203270	-0.043759	-0.001648	0.076779	-0.085903	-0.023921	-0.087136	0.027937	-0.096340	0.067971	-0.003039	-0.076098	0.127586	-0.114226	0.083302	-0.131912	0.081417	-0.001231	-0.130622	0.050000	0.114859	0.053699	0.034068	-0.059028	-0.028377	-0.116508	0.113848	-0.152430	-0.038349	-0.095550	-0.005600	-0.163728	-0.006689	-0.097656	-0.144261	0.085602	-0.014923	0.072235	-0.102053	0.093680	0.152061	0.121834	-0.082445	-0.121352	-0.152686	-0.109444	-0.015085	0.124413	0.046178	0.048543	0.012832	-0.030752	-0.028503	-0.071186	0.009330	-0.150454	0.073752	0.078404	0.066949	0.116242	0.006059	0.120826	0.102064	-0.062969	-0.093415	0.165269	-0.167379	-0.109210	0.155163	-0.093142	0.029525	-0.117716	-0.085536	-0.011272	-0.070950	0.130148	0.094990	0.197123	
/government/political_district/representatives./government/government_position_held/legislative_sessions	-0.035145	0.073921	-0.014517	0.091901	-0.006635	-0.167622	-0.115817	0.078855	0.001713	-0.105320	0.027006	0.139840	-0.121432	-0.067454	0.139897	0.109357	0.052044	-0.078052	-0.009473	0.006927	-0.187196	0.019572	0.025488	0.081059	0.010640	-0.090584	-0.135660	0.066658	-0.018394	-0.200134	-0.031540	-0.180417	-0.009134	0.252851	-0.057390	-0.009467	-0.083135	-0.118945	0.113625	-0.129793	-0.130816	-0.095808	0.100979	0.059265	-0.106804	0.071008	0.091664	0.108253	-0.144246	0.005458	0.085485	0.092777	-0.132948	-0.097555	0.023330	-0.065185	0.013379	-0.102319	-0.092675	0.026616	-0.041164	0.011065	0.138019	0.100137	0.048744	-0.119291	0.101331	-0.113963	-0.084527	-0.062931	0.128587	0.019837	0.164901	-0.178537	-0.125466	-0.123308	0.005030	0.015006	0.118147	0.165815	-0.151649	-0.127506	-0.071133	-0.025515	-0.010598	0.038158	-0.053306	0.083235	0.087463	-0.020200	-0.166988	-0.114989	0.050787	-0.174326	0.103415	-0.071570	-0.147808	0.084883	-0.024510	0.009650	
/film/film/starring./film/performance/actor	0.068074	-0.022111	0.004457	0.024647	0.064824	-0.159790	0.039976	-0.130853	-0.026744	-0.009239	0.146028	-0.127377	-0.078215	0.145019	0.090818	-0.123114	0.093240	0.031506	0.049142	-0.153044	-0.015036	0.034055	0.041309	-0.002120	-0.183509	0.104005	0.169554	-0.261789	-0.131001	-0.055346	0.072090	0.085458	0.064278	0.112719	0.073647	-0.049528	-0.130669	0.016268	0.140450	-0.055651	-0.250321	0.059930	0.131231	0.013807	-0.044361	-0.060761	-0.016111	0.097520	-0.022236	0.060069	0.167781	-0.106407	0.093568	0.015752	0.009506	0.123946	0.005878	0.084451	0.052932	-0.059880	-0.139471	-0.122235	-0.147606	-0.151371	0.140599	-0.058398	-0.145118	0.031162	-0.138796	-0.116267	-0.063020	-0.045188	-0.049667	-0.048846	-0.100848	-0.002189	0.055345	-0.054515	-0.077793	0.161938	-0.095877	-0.019221	0.012591	0.121944	-0.062370	0.114503	-0.009321	0.112764	0.068850	-0.046609	0.113645	0.120895	-0.118251	0.112016	-0.036239	0.091658	-0.061593	0.163139	-0.076898	0.137278	
/soccer/football_team/current_roster./soccer/football_roster_position/position	0.044044	0.091790	0.050358	-0.023209	-0.063833	-0.067972	-0.108906	-0.149341	0.115991	0.083558	0.023396	0.162631	-0.000091	0.142641	0.006240	0.086357	0.051967	-0.032788	-0.023516	0.158665	-0.151876	-0.016400	-0.141270	0.120794	0.032451	-0.019896	0.111185	0.112153	0.135974	-0.084744	0.053148	-0.056505	0.062524	0.118819	-0.100210	0.053373	-0.142151	0.117510	-0.022393	0.048534	0.185577	-0.103081	-0.127492	0.055563	-0.042042	0.022026	0.028488	0.096694	-0.043488	0.138595	0.029813	-0.008202	-0.051341	-0.001531	-0.128475	0.040812	0.130203	0.000232	0.061883	-0.008357	-0.001322	-0.164730	-0.162071	-0.152776	0.060300	0.100759	0.172472	0.209353	0.034145	-0.153464	-0.045883	0.047732	0.027786	0.079410	0.034262	0.105201	0.025562	0.159839	-0.110271	-0.072119	-0.115347	-0.129324	0.106071	-0.134946	-0.096833	-0.061713	0.095901	-0.137318	0.123535	0.112301	-0.164995	0.101849	0.019980	0.108865	0.091023	0.015244	0.105919	-0.095028	-0.121695	-0.191096	
/film/actor/film./film/performance/film	-0.069255	0.025924	-0.023212	-0.000328	-0.056394	0.170914	-0.059338	0.117197	0.031656	0.013565	-0.160275	0.123983	0.070017	-0.136017	-0.110070	0.122554	-0.107338	-0.023096	-0.061688	0.163418	0.024419	-0.037424	-0.055054	-0.005998	0.175665	-0.091019	-0.151729	0.261435	0.116342	0.030547	-0.062310	-0.081426	-0.059281	-0.115696	-0.052977	0.051746	0.132133	-0.021402	-0.130035	0.044538	0.256743	-0.057900	-0.117598	-0.046200	0.048498	0.064244	-0.005326	-0.118224	0.006134	-0.057623	-0.150064	0.114184	-0.124022	-0.016265	-0.033790	-0.132682	-0.010500	-0.056009	-0.063312	0.072061	0.125177	0.126784	0.136612	0.155605	-0.146216	0.079393	0.144172	-0.018187	0.170331	0.095379	0.059034	0.063881	0.042575	0.038322	0.094015	0.008389	-0.054377	0.052516	0.070531	-0.146057	0.094907	0.017279	-0.008924	-0.109280	0.064614	-0.131845	-0.007089	-0.116549	-0.082250	0.048660	-0.113763	-0.126634	0.101920	-0.109272	0.015908	-0.095712	0.050606	-0.139692	0.088167	-0.144864	
/award/award_nominated_work/award_nominations./award/award_nomination/award	0.068354	-0.069258	0.079513	0.120512	0.049910	-0.153201	0.068069	-0.176002	-0.112132	0.157828	0.043328	0.052643	0.045920	0.068405	0.178142	-0.111688	0.068738	-0.050070	0.150348	0.042111	0.105172	-0.162974	0.086242	0.116722	-0.127378	0.095192	0.178364	0.079016	-0.170039	0.000978	0.094636	0.152825	-0.039913	0.132551	0.104616	-0.152879	0.014790	0.033008	0.144560	-0.062204	0.084800	-0.104974	-0.004260	-0.091368	-0.121457	-0.104998	0.090907	-0.060316	-0.057853	-0.028041	-0.039272	-0.088084	0.077749	0.079241	-0.100391	-0.095291	0.003904	-0.094037	0.162325	-0.129680	-0.030171	-0.153098	-0.119822	0.105760	0.054142	-0.097953	-0.126308	0.069766	-0.113611	0.005793	0.087834	-0.107529	-0.079176	-0.051741	-0.129787	-0.036084	-0.034155	-0.156965	-0.164147	0.085342	-0.103794	-0.076975	-0.055208	0.051944	0.021950	-0.089996	-0.027987	0.144261	0.089064	0.153813	-0.006585	-0.092511	0.067150	0.039649	-0.122991	-0.033059	-0.103406	-0.049179	0.140725	0.093603	
/award/award_category/nominees./award/award_nomination/nominated_for	-0.081054	0.097556	-0.070790	-0.113057	-0.079620	0.159620	-0.045708	0.186964	0.126178	-0.133382	-0.032358	-0.056569	-0.011252	-0.098635	-0.178151	0.117548	-0.049925	0.047202	-0.138842	-0.058340	-0.105256	0.148326	-0.099608	-0.096991	0.113377	-0.127282	-0.161540	-0.092581	0.181371	0.003732	-0.097408	-0.138207	0.059323	-0.135158	-0.118940	0.174237	-0.019473	-0.023886	-0.128293	0.063809	-0.114244	0.094279	-0.000700	0.089553	0.110010	0.119653	-0.085619	0.059425	0.043200	0.054196	0.040991	0.067979	-0.076938	-0.080233	0.113019	0.090462	-0.016139	0.094849	-0.151426	0.140739	0.042628	0.154246	0.103338	-0.073380	-0.056629	0.080108	0.132419	-0.097548	0.111148	0.007252	-0.091025	0.093314	0.081939	0.045635	0.133616	0.030502	0.040786	0.160497	0.131462	-0.091721	0.112337	0.102483	0.030554	-0.039839	-0.016367	0.069887	0.030792	-0.145000	-0.114346	-0.148014	0.008083	0.102935	-0.075031	-0.034763	0.108525	0.030529	0.100617	0.037562	-0.144344	-0.092370	
/organization/membership_organization/members./organization/organization_membership/member	-0.155032	0.105217	-0.115981	0.081006	-0.138420	-0.109163	-0.046873	-0.048061	0.013866	-0.096843	-0.154909	-0.138125	-0.001279	-0.017321	0.008281	-0.033624	-0.066327	0.097349	0.050797	-0.179900	-0.098474	-0.074749	0.028301	0.045604	-0.119409	-0.032301	0.165585	-0.175549	-0.100793	0.147121	0.047782	-0.029463	0.038936	-0.054904	-0.111358	-0.091588	0.007638	0.118640	-0.085719	-0.047954	-0.133251	0.125045	-0.128124	-0.002954	-0.040695	0.037725	0.011485	-0.074185	-0.135256	0.200771	0.029002	-0.137301	0.166066	-0.088333	0.029050	0.070692	-0.139666	0.040086	0.157643	0.098126	-0.109523	-0.070637	-0.049165	-0.016082	-0.154349	0.002300	-0.116599	0.207426	-0.007846	-0.080643	0.085965	-0.018598	0.109061	-0.187790	-0.024034	-0.013817	0.079323	0.082779	0.015845	0.009992	-0.017822	0.051562	0.094244	-0.097719	-0.031605	-0.069185	-0.089370	0.113458	-0.117461	-0.119305	0.040665	0.008590	0.072314	0.145625	0.031916	-0.002904	-0.152459	0.072436	-0.069455	0.016471	
/award/award_nominee/award_nominations./award/award_nomination/award_nominee	0.002129	0.017052	0.001178	0.001075	0.000847	0.025551	0.000624	-0.009429	-0.007925	0.001712	0.002369	0.010873	-0.004500	-0.017169	0.007880	-0.022421	0.007132	0.004578	0.001541	0.003390	-0.008778	-0.005708	-0.000683	-0.006938	-0.008971	0.015198	-0.019114	0.005595	-0.014888	0.006532	0.001623	0.021744	-0.009641	0.019499	0.003190	0.002081	-0.016118	0.007650	0.009110	-0.008283	-0.004852	-0.000439	0.003008	-0.010771	-0.019815	0.010736	0.006091	-0.008650	0.003218	0.006304	-0.003855	0.010505	-0.002354	-0.011873	0.002752	-0.017041	-0.001422	-0.010273	-0.018290	-0.000000	-0.006873	-0.013159	0.014393	-0.002000	0.002481	0.009508	0.004154	-0.012454	0.008198	0.014913	0.004083	-0.004780	-0.007339	0.018631	0.003520	0.028999	-0.007040	0.009784	0.014370	0.011206	0.000155	0.004064	-0.019307	-0.010028	0.013994	-0.009820	0.003414	-0.012605	-0.002529	0.017049	0.005368	0.001107	0.002028	-0.009320	-0.003629	0.008714	0.000473	-0.009937	-0.003528	0.012875	
/olympics/olympic_sport/olympic_games_contested	-0.017421	-0.066345	-0.025706	-0.084252	0.012296	0.178278	0.097416	-0.038758	-0.043628	-0.106079	-0.015501	-0.075917	0.016948	-0.027217	0.041249	-0.019480	-0.011846	-0.019305	0.075582	-0.074598	0.027514	-0.010112	-0.028864	0.102404	-0.153733	-0.009072	-0.032373	0.044424	-0.120385	-0.056381	-0.060164	0.007760	0.022156	-0.046021	-0.108371	-0.088685	0.063611	-0.021823	-0.095238	-0.061864	0.058706	-0.053842	-0.067114	0.003495	0.058422	-0.036333	0.037718	-0.135826	0.159649	0.082371	-0.065401	-0.096883	0.008851	0.045947	0.027145	0.053464	-0.069247	0.016527	0.034855	-0.038175	-0.062534	-0.164510	0.079449	0.005533	0.046074	0.015321	-0.000884	0.048256	-0.021150	-0.129108	0.092280	-0.081423	-0.121629	0.054269	0.009109	0.076920	-0.040365	0.051018	0.053028	-0.050091	-0.086335	-0.150662	0.060815	0.012233	-0.077073	0.063511	-0.059665	-0.011360	-0.169654	0.042595	0.003875	0.005450	-0.005032	0.033416	0.023137	0.139974	0.129094	-0.134764	0.085723	-0.009772	
/music/performance_role/regular_performances./music/group_membership/role	0.028138	0.009765	0.032859	0.006685	-0.002140	0.006596	-0.005806	0.158064	-0.002032	0.007894	0.008352	-0.000402	-0.068375	0.033682	-0.015949	0.001393	0.018075	0.011998	-0.025736	0.003403	-0.004190	0.009078	0.011028	-0.030097	0.015062	0.006089	-0.065193	-0.008031	0.001570	0.021023	0.003373	0.000376	0.015920	-0.019780	0.000633	-0.004588	-0.109324	0.031155	0.000408	0.030412	-0.014393	-0.009395	0.045369	-0.025301	0.008255	-0.006252	-0.066152	-0.001464	0.022467	-0.009744	-0.013277	-0.015664	0.040378	0.022660	-0.003901	-0.006475	-0.004343	0.000019	-0.000624	-0.003407	-0.007184	-0.066774	0.010832	0.002220	-0.000982	0.028531	0.008751	-0.005472	-0.006226	0.052142	0.013519	0.015136	0.024487	0.016132	-0.036803	-0.015696	-0.016927	-0.000034	0.005172	0.023570	-0.020223	0.007419	0.004504	-0.022583	-0.001339	0.000902	-0.023761	-0.000124	0.032669	0.005421	-0.021369	-0.000620	-0.003301	-0.008439	0.030858	0.008810	-0.018892	-0.004604	0.005486	-0.244433	
/award/award_category/winners./award/award_honor/ceremony	0.036734	-0.050297	-0.121957	-0.071835	0.112399	0.149027	0.153519	0.157659	0.018500	-0.049840	0.154651	0.001958	0.018463	0.100639	-0.102584	0.008488	-0.162404	0.031597	-0.133463	-0.025239	-0.143963	0.148884	-0.068750	0.046847	0.131201	-0.107587	-0.192191	-0.127712	0.099153	-0.068005	-0.024439	-0.107912	0.052162	-0.130468	0.006029	0.064045	-0.087559	0.082452	0.065681	-0.006095	-0.145579	0.128668	-0.006010	0.064799	0.144774	-0.029419	-0.096721	0.175022	0.067380	0.017423	0.154512	-0.069105	-0.075065	-0.010102	0.140697	0.051385	0.145045	0.074451	-0.104445	0.172082	-0.055882	0.149185	-0.089894	0.081093	-0.121286	-0.068383	-0.061486	0.018737	0.074257	-0.105999	0.021703	0.079137	0.167068	0.054150	0.152890	-0.158112	0.101991	0.116454	0.099046	0.084245	-0.056169	-0.025595	-0.005955	0.120547	-0.111071	0.028251	-0.039675	-0.065527	-0.123382	-0.166090	-0.063362	0.044809	-0.089439	0.078349	0.024138	-0.148807	0.067850	-0.016999	-0.169875	0.037721	
/film/film/release_date_s./film/film_regional_release_date/film_release_distribution_medium	-0.159097	0.059143	-0.033895	-0.072188	0.019243	-0.112306	0.091652	-0.095311	0.077279	0.079640	0.117512	-0.111120	0.112467	-0.111263	0.087626	0.057526	-0.053539	0.062770	0.021479	0.124251	-0.030964	-0.123820	-0.134227	0.040849	-0.107713	0.127903	-0.131813	-0.199560	0.125945	0.056118	-0.078232	-0.030871	-0.002341	-0.070965	0.034329	-0.109227	-0.145979	-0.081564	0.013473	0.090477	-0.115907	0.133462	0.172273	-0.150280	-0.104848	-0.177529	-0.132269	0.061622	0.054573	-0.062845	0.014189	-0.137548	0.059778	0.101628	0.037003	0.125416	0.017485	0.162822	0.101596	-0.082033	0.142228	-0.070384	0.026108	0.039186	-0.076526	-0.139417	-0.166148	0.045413	-0.097785	0.157212	0.032784	-0.075935	-0.101941	-0.060138	0.035288	-0.034869	0.168989	-0.041854	-0.005741	-0.082653	-0.148480	0.105269	-0.112048	0.154318	0.105305	0.050351	0.064697	0.131166	0.061718	0.059615	-0.048694	0.119799	-0.167874	-0.041357	-0.142671	-0.012805	-0.076344	0.094656	-0.016066	0.125622	
/people/marriage_union_type/unions_of_this_type./people/marriage/spouse	-0.107327	0.003043	-0.108476	0.107726	-0.042948	0.086721	0.072917	-0.066231	0.093608	-0.076801	0.137083	0.068013	-0.009620	-0.088554	0.089343	-0.101592	-0.037377	-0.119303	-0.080076	0.031302	-0.136846	0.149756	-0.070778	-0.098151	0.128386	0.031626	0.139980	-0.090422	0.101817	0.097196	0.161006	0.031663	0.043076	0.158864	-0.063208	0.061208	0.134145	-0.058586	0.157401	-0.049403	-0.047130	-0.098326	0.073892	0.047973	0.019299	0.054491	-0.073971	-0.105011	-0.063167	-0.129036	0.147557	-0.118721	-0.125104	-0.076841	-0.040742	0.049512	0.158496	0.133338	-0.107374	-0.016970	-0.154703	0.028986	-0.109818	-0.101183	0.101891	0.073640	0.063819	-0.094770	-0.139155	-0.169933	0.125651	0.125229	-0.122392	-0.149819	-0.125800	-0.022721	0.085036	0.040434	-0.099316	-0.102345	0.032919	0.114812	-0.165216	-0.070774	-0.076636	-0.085857	0.145054	-0.034014	0.091569	0.117397	-0.102468	0.115995	0.145440	-0.093056	-0.071653	0.074497	0.129360	0.064641	0.019810	0.146753	
/award/award_winning_work/awards_won./award/award_honor/award_winner	0.084009	-0.030673	0.025820	0.145277	0.060372	-0.163545	-0.001545	-0.142903	-0.031900	0.033323	0.151627	-0.143478	-0.022828	0.129825	0.129274	-0.037041	0.057023	0.052818	0.059006	-0.151331	-0.002384	0.033800	0.146624	0.023548	-0.155959	0.087142	0.169926	0.029935	-0.086994	-0.033373	0.012926	0.034920	-0.020970	0.123805	0.044093	-0.083301	-0.116310	0.043604	0.110398	-0.041651	-0.043839	0.008588	0.126815	-0.041008	-0.045785	-0.062907	0.037228	0.118586	0.006311	0.052346	0.168633	-0.093404	0.079909	0.003400	0.008802	0.145088	0.071941	0.072032	0.084135	-0.052787	-0.101389	-0.072366	-0.118065	0.066116	0.141613	-0.073704	-0.146746	-0.005801	-0.144768	-0.156109	-0.057297	-0.052304	-0.049705	-0.012558	-0.094059	-0.026524	0.031193	-0.148292	-0.071599	0.068098	-0.127680	-0.020110	0.001849	0.134314	-0.086940	0.119704	-0.073222	0.077135	0.050461	0.069010	0.066497	0.112866	-0.139839	-0.030694	-0.011137	0.063839	-0.041485	0.068896	0.053909	0.113413	
/film/film/release_date_s./film/film_regional_release_date/film_release_region	-0.055910	-0.131805	0.049041	0.092055	-0.106853	0.125890	0.048941	0.063722	-0.127623	-0.115422	-0.013083	-0.096732	0.084305	-0.104772	-0.003649	0.096296	-0.104322	0.112579	0.033394	-0.118709	0.077817	-0.170658	0.129341	-0.006111	-0.098946	0.142161	0.168577	-0.142893	-0.099805	0.056214	-0.135004	0.115945	0.082938	0.091443	0.080616	0.084251	-0.125487	0.032530	-0.104076	-0.045384	-0.082038	0.146471	0.068046	-0.123836	0.133020	-0.099484	-0.096447	0.146770	-0.131575	0.091906	0.047589	-0.150974	0.102485	0.039473	-0.078085	-0.077513	-0.129380	0.124842	0.129403	-0.080930	-0.118442	-0.092065	-0.158341	-0.114703	-0.100605	-0.084856	-0.098926	0.134484	-0.066266	0.012798	0.055319	-0.147179	0.082762	-0.123847	0.084208	-0.088501	0.115342	0.061046	-0.093660	-0.131646	-0.135444	-0.139643	0.040817	-0.039569	0.064327	0.064390	-0.065834	-0.043520	0.044132	-0.061841	0.083802	0.084196	-0.135941	0.110087	-0.100212	0.096155	-0.054101	-0.042182	0.018775	0.111651	
/film/film/language	-0.048036	0.068955	0.052143	-0.088906	0.166632	0.082633	0.061935	-0.198103	-0.148385	-0.134992	0.095933	-0.117783	-0.130052	-0.002694	0.103081	-0.062652	0.134634	0.062445	0.053031	-0.162010	0.000155	-0.060239	0.147503	0.103342	-0.067878	0.186634	0.147547	0.008573	-0.043995	-0.098915	-0.057231	0.076477	0.077875	0.028948	-0.086157	-0.115889	-0.118321	-0.041655	0.194471	0.029956	0.063568	0.140930	0.088717	-0.094252	-0.073119	-0.106224	-0.017276	0.113327	-0.145481	0.041165	-0.044076	0.018983	0.086757	0.114833	-0.050076	0.129171	-0.122782	-0.009496	0.116293	0.016085	0.043361	0.061810	0.087184	-0.120818	-0.043775	-0.060413	-0.141036	0.142481	-0.087968	-0.176711	-0.058251	0.122747	-0.064525	-0.097547	-0.007851	0.032444	0.117686	-0.084381	-0.116264	0.035810	-0.109356	-0.059101	-0.112147	0.116568	0.007780	-0.003643	0.105218	-0.008231	0.081419	-0.073112	0.105426	0.197344	-0.156419	0.126807	-0.025470	-0.132816	-0.075661	0.145985	0.067986	-0.011802	
/music/artist/genre	-0.101009	0.095016	-0.093974	-0.086856	0.057968	0.080255	0.124032	0.005566	-0.119199	-0.099925	-0.079956	-0.008337	0.158329	0.033236	-0.123014	0.100503	0.083558	0.037462	0.125865	0.047520	-0.109602	0.005668	-0.107500	-0.083405	0.099548	-0.066742	-0.119300	0.017893	-0.126347	0.055128	0.110746	0.135715	0.152842	0.035038	-0.084984	-0.071645	0.004536	-0.112388	-0.013033	0.107488	0.205005	0.038647	0.074905	0.099846	-0.034856	-0.118729	-0.027461	0.011899	0.126317	-0.086283	-0.173700	0.091282	-0.141728	0.133292	0.079396	-0.146609	0.113342	-0.109464	0.066690	-0.124889	-0.011828	-0.039932	-0.167760	0.074947	0.061991	-0.073993	0.106556	0.154961	-0.049467	0.107321	0.037230	0.152706	0.093423	0.109538	0.121701	-0.091277	0.118643	0.091357	-0.135599	0.047240	-0.069122	-0.043019	-0.091372	0.047538	0.119592	0.095415	-0.085168	-0.040304	-0.088231	-0.156653	-0.121880	0.076298	0.103730	-0.122160	-0.128275	-0.114769	0.071031	-0.074974	0.125304	0.092585	
/location/location/containedby	0.032234	0.023103	0.066374	-0.079093	-0.341579	-0.003253	-0.034499	0.038526	0.003653	-0.241250	-0.034611	-0.036443	0.042277	-0.057020	-0.020896	-0.046048	-0.010774	0.140585	-0.011747	-0.245616	-0.053984	0.030781	0.256443	-0.019119	0.002179	0.035935	0.043534	-0.120906	-0.032996	-0.029898	-0.004729	-0.002402	-0.098446	-0.155386	0.063021	0.023037	-0.012099	0.003876	0.017813	0.037154	-0.016628	0.054408	-0.007761	-0.218019	-0.058210	0.021736	-0.210732	0.015402	0.136580	0.058869	-0.054278	-0.032235	-0.005156	0.015205	0.032786	-0.038126	0.022638	-0.036175	-0.011327	0.019965	0.032468	-0.013112	-0.167640	-0.007127	-0.270881	0.034163	0.003492	0.008018	0.058214	0.044854	0.064825	-0.161214	-0.021650	-0.135136	0.054454	0.058666	0.116186	-0.005486	0.007845	-0.012083	-0.028247	-0.019198	0.264572	-0.060243	-0.030121	-0.012563	0.058194	-0.045759	-0.047967	0.028409	0.234078	0.031331	-0.007396	0.026299	-0.034330	-0.035974	-0.010481	-0.314473	-0.043539	-0.047157	
/people/person/ethnicity	-0.136112	-0.144777	0.136393	-0.128199	-0.062800	-0.034406	0.092125	-0.058574	-0.036664	-0.048341	-0.132222	-0.007421	0.177484	0.060827	-0.048458	-0.047597	0.045355	-0.113386	-0.079477	0.089802	0.084718	-0.143836	0.096531	-0.102647	-0.031573	-0.133127	-0.112739	0.011548	0.175719	0.102728	-0.081216	-0.080850	-0.061142	-0.084419	-0.143130	-0.087828	-0.014975	-0.146106	-0.119836	-0.085580	0.154110	-0.108991	0.085779	0.120248	0.101345	0.053722	-0.051557	-0.119699	0.095230	-0.002423	-0.154055	0.115570	0.007174	-0.024963	0.049719	-0.158709	0.057618	0.130503	0.110167	0.079189	0.100474	0.129302	0.087409	-0.111621	-0.024573	0.102374	0.129180	0.125474	-0.043955	0.024585	0.174070	-0.063447	0.023536	0.106607	0.098532	-0.135960	0.034959	0.151200	-0.154608	-0.147123	-0.108089	-0.031106	-0.033048	-0.002339	0.116034	0.032598	-0.098152	0.051044	0.107618	-0.117761	0.015920	0.014746	0.091408	0.079813	-0.161374	-0.088256	-0.145705	-0.034041	-0.026967	-0.142468	
/education/educational_institution/students_graduates./education/education/degree	0.171095	0.190336	0.083160	-0.078894	0.079972	0.035988	-0.038482	-0.029054	0.139484	-0.092798	-0.089577	0.081339	-0.021512	-0.080775	0.118066	-0.026708	0.040355	-0.163502	0.019312	-0.048552	-0.122977	-0.059676	0.187967	0.167092	0.006419	-0.082039	0.104891	-0.062206	-0.143649	-0.127890	-0.041848	-0.064375	0.116423	-0.125207	-0.095180	0.137866	0.065539	-0.013903	0.140191	0.077410	0.029254	-0.037641	0.153077	-0.084118	-0.094199	-0.070272	0.130628	-0.024660	0.160937	0.084025	-0.171910	0.118332	0.045835	0.017076	0.108859	0.076012	-0.119059	0.007584	0.114108	0.129980	-0.022113	0.027167	-0.123967	0.128958	0.046620	-0.086891	0.049117	0.119824	-0.038113	0.059910	0.104028	-0.060069	0.023600	-0.126184	-0.108764	0.157780	0.157963	-0.034962	0.053908	-0.055931	-0.106224	-0.116005	-0.014583	-0.103772	-0.089724	-0.122061	0.088586	-0.127520	-0.014785	0.143095	0.104962	0.162407	0.031826	0.003729	-0.060563	-0.127512	-0.078569	-0.110220	-0.043945	-0.154290	
/award/award_category/nominees./award/award_nomination/award_nominee	-0.026184	0.091517	-0.075601	0.033811	-0.018993	-0.040208	0.010049	0.036167	0.115659	-0.088202	0.100406	-0.165140	-0.052704	0.074892	-0.047638	0.090808	-0.075501	0.084169	-0.109248	-0.186121	-0.096289	0.174654	0.036997	-0.142410	-0.085966	-0.022353	-0.008457	-0.099701	0.046819	-0.052371	-0.028895	-0.099989	-0.023434	-0.051434	-0.093153	0.116748	-0.187584	-0.002820	0.014176	0.053197	-0.142607	0.119472	0.127605	0.055904	0.050508	0.050932	-0.042505	0.205252	0.108492	0.094994	0.239668	-0.110584	0.085959	-0.074561	0.133384	0.235308	0.134194	0.128068	-0.034707	0.078584	-0.104742	0.044807	-0.009764	-0.028570	0.105386	0.019415	-0.116893	-0.101590	-0.056299	-0.200905	-0.107579	0.047295	0.047253	0.078904	0.018045	0.040930	0.100477	-0.039623	0.048562	-0.038068	0.007655	0.027781	0.099030	0.122344	-0.128843	0.180905	0.010583	-0.074644	-0.033676	-0.088862	0.050272	0.223996	-0.188552	-0.084195	0.112896	0.025404	0.074561	0.106157	-0.107995	0.064287	
/award/award_ceremony/awards_presented./award/award_honor/award	-0.049706	0.062473	0.097109	0.081241	-0.126762	-0.137777	-0.123785	-0.144611	-0.032700	0.053480	-0.179286	0.020581	-0.038136	-0.108067	0.112648	-0.013066	0.168023	-0.016262	0.129747	0.016373	0.152069	-0.148791	0.087884	-0.036321	-0.100688	0.099993	0.175266	0.127188	-0.089795	0.064368	0.029603	0.128982	-0.062944	0.119582	0.009743	-0.062785	0.086838	-0.076441	-0.068563	0.015753	0.168803	-0.116970	0.018187	-0.078857	-0.133987	0.052968	0.095670	-0.151205	-0.067886	-0.026700	-0.149625	0.071478	0.077975	0.039571	-0.135244	-0.043305	-0.113460	-0.085298	0.121684	-0.182190	0.088334	-0.127619	0.075022	-0.066240	0.121079	0.072486	0.052155	-0.024726	-0.075055	0.111353	-0.023164	-0.104730	-0.163909	-0.054157	-0.153446	0.156452	-0.101124	-0.104997	-0.114272	-0.083870	0.086110	0.053925	0.031003	-0.138905	0.096920	-0.012115	0.048221	0.077424	0.106503	0.164260	0.069294	-0.038547	0.096337	-0.084031	-0.015459	0.145042	-0.083639	0.018805	0.174089	-0.043305	
/location/location/contains	-0.057696	-0.041696	-0.059626	0.085478	0.306523	0.012184	0.033335	-0.033545	0.027429	0.209448	0.046387	0.053664	-0.036554	0.047783	0.002047	0.031788	0.005359	-0.133480	-0.002133	0.318534	0.034388	-0.029509	-0.226210	0.034421	-0.012665	-0.035509	-0.040528	0.094680	0.053753	0.007667	0.011394	-0.001706	0.102730	0.180535	-0.032545	-0.015590	0.027867	-0.013533	-0.015377	-0.044837	0.020592	-0.054230	-0.013008	0.224058	0.039848	-0.028105	0.223750	0.020732	-0.119140	-0.034593	0.071102	0.037533	0.006860	0.019993	-0.018711	0.033519	0.017414	0.048940	0.000081	-0.011405	-0.036664	0.024483	0.174519	0.039763	0.235928	-0.055844	0.003317	-0.001556	-0.031275	-0.024908	-0.037058	0.173004	0.014249	0.102691	-0.075572	-0.084303	-0.121479	0.013503	-0.004262	0.021955	0.017651	-0.000530	-0.282494	0.064898	0.041571	0.024339	-0.030396	0.065013	0.071101	-0.016358	-0.243974	-0.052511	0.048923	0.013165	0.003388	0.039916	-0.011837	0.332267	0.038773	0.068113	
/organization/organization/headquarters./location/mailing_address/country	-0.032322	0.021417	-0.005647	-0.127021	-0.183208	-0.016928	0.047617	0.180947	0.051773	0.002400	-0.174556	0.125763	0.048613	-0.017738	-0.085564	-0.045369	-0.113639	0.068154	0.071371	-0.196534	0.035798	0.007317	0.121121	0.095605	-0.046585	-0.037060	0.020376	-0.196037	-0.067539	-0.039220	0.075373	-0.041572	-0.008887	-0.090117	-0.059734	0.024560	0.064275	0.019319	0.009824	-0.009966	-0.121261	0.034628	0.017247	-0.121001	0.038609	0.093531	0.057930	-0.049566	-0.076013	0.171177	-0.127719	-0.046925	0.036899	-0.027640	-0.110876	-0.065087	-0.056345	-0.106627	0.085970	0.021512	0.015590	-0.014091	-0.183088	-0.001552	-0.146145	0.023886	0.012777	0.125563	0.044886	0.182423	-0.129779	-0.147748	0.024175	-0.182113	0.129041	0.040085	0.188893	0.013907	0.088659	-0.044108	0.059760	0.169105	0.227657	-0.165994	0.026247	-0.101849	0.044817	-0.165204	-0.099127	-0.096293	0.129484	-0.133357	-0.020768	0.229127	-0.125698	-0.063658	-0.118895	0.000258	-0.121295	-0.028934	
/people/person/profession	-0.130364	-0.156092	0.105466	-0.104928	0.086050	0.076606	0.077434	0.100798	-0.083811	-0.126704	0.024436	-0.023628	0.152003	0.079408	0.047505	0.006787	-0.063868	-0.054343	-0.048952	0.136317	0.064249	-0.128905	0.068978	0.180757	0.173390	-0.112774	-0.151421	0.026486	0.133354	-0.031862	0.039515	-0.136512	-0.036393	0.023989	-0.092702	-0.119224	0.103774	-0.103642	0.103151	0.047380	0.005430	0.009324	-0.152711	0.081890	-0.060438	-0.037349	-0.046646	0.084594	0.079962	-0.123210	-0.177925	0.102541	-0.135661	0.037065	-0.150802	0.022282	-0.116419	0.143507	0.010955	-0.112084	0.118776	-0.081347	-0.014187	-0.084565	-0.174386	0.136671	0.120926	0.091319	-0.098311	-0.080657	-0.090619	-0.113383	0.038266	0.111275	-0.073953	0.064882	-0.059057	0.121685	-0.099944	-0.146854	-0.016696	-0.062989	0.099576	-0.099747	-0.008598	0.095031	0.033429	-0.091345	-0.037805	-0.090781	-0.100375	-0.105329	-0.110381	-0.202593	0.081660	-0.013969	0.002920	0.069803	0.144210	0.108060	
/film/film_job/films_with_this_crew_job./film/film_crew_gig/film	0.068146	0.093657	-0.123909	0.092359	-0.134879	-0.120767	-0.066474	0.141102	-0.080732	0.161682	-0.158027	0.124804	0.073902	-0.091769	-0.147795	-0.115960	-0.080618	-0.099347	0.025606	-0.124156	-0.003061	-0.021604	-0.129526	-0.125062	-0.066400	0.102400	0.109058	0.095598	-0.126121	-0.019960	-0.076608	0.149196	0.093650	0.144841	0.136561	0.079453	0.023095	-0.073247	0.112168	-0.007526	0.084534	-0.097556	0.117783	-0.140362	-0.035397	-0.071690	0.007352	-0.153373	-0.024306	0.120374	-0.083623	0.130147	0.110449	-0.129071	0.028338	-0.130089	0.091043	-0.029633	-0.108652	0.091618	0.101775	0.113748	-0.128215	-0.019872	-0.088821	-0.085817	-0.111152	-0.103899	0.114440	0.151617	-0.000806	0.145883	0.037730	-0.096152	0.115554	-0.033730	0.007274	0.127921	0.075430	-0.084392	0.109864	-0.000494	-0.036979	-0.103194	0.094850	-0.118124	0.060235	0.097388	-0.095288	-0.078954	-0.113909	-0.124028	0.095177	0.006815	0.091074	0.151418	0.057470	-0.102055	0.096299	-0.059009	
/people/profession/people_with_this_profession	0.147839	0.149325	-0.102283	0.096803	-0.135135	-0.031220	-0.087598	-0.097271	0.114627	0.120918	-0.057121	0.041256	-0.170610	-0.071809	-0.020603	-0.006948	0.069828	0.047778	0.039829	-0.134307	-0.080985	0.161554	-0.102042	-0.128953	-0.155958	0.110625	0.139893	-0.033292	-0.114771	0.059446	-0.020492	0.127449	0.008133	-0.041056	0.101716	0.121991	-0.116681	0.125638	-0.127905	-0.052447	-0.023541	-0.039060	0.170405	-0.081426	0.054692	0.055323	0.018046	-0.107534	-0.056163	0.123769	0.167567	-0.091820	0.170336	-0.024908	0.103233	-0.020775	0.129685	-0.101580	-0.007766	0.125002	-0.134758	0.086826	0.015765	0.097258	0.140429	-0.149854	-0.162011	-0.102542	0.082146	0.083579	0.086769	0.103861	-0.046373	-0.129465	0.093568	-0.100833	0.056868	-0.084607	0.080172	0.165322	0.061541	0.073199	-0.142936	0.111914	0.012088	-0.085179	-0.069152	0.093087	0.039387	0.097517	0.075662	0.153290	0.035054	0.134174	-0.045134	0.053059	-0.034370	-0.059528	-0.122847	-0.099337	
/film/film_costumer_designer/costume_design_for_film	-0.086184	0.015369	-0.028074	-0.126998	0.014783	0.125481	-0.108984	0.052191	0.013825	0.003128	-0.091603	0.132265	0.032884	-0.031116	-0.152072	-0.037082	-0.089596	0.006465	-0.050430	0.200253	0.027284	0.032551	0.047055	0.009820	-0.002914	-0.034132	-0.029998	-0.031083	-0.007389	0.035964	-0.018083	-0.154595	0.047010	-0.162394	-0.031654	0.126254	0.053818	0.071132	-0.125211	0.017755	0.073207	0.008831	-0.161235	0.156808	0.044678	0.034671	-0.114661	-0.164678	0.046481	-0.045992	-0.149738	0.142728	-0.089608	-0.052843	0.004475	-0.152443	-0.068512	-0.055239	-0.056263	0.106756	0.100515	0.071785	0.097956	-0.143898	-0.105285	0.040216	0.120379	-0.014309	0.120545	0.044604	-0.071842	0.139997	0.015258	0.132666	0.136665	0.045087	-0.043295	0.130776	0.080407	-0.053808	0.070518	0.021971	0.018752	-0.181843	0.061993	-0.130063	-0.023819	-0.038558	-0.084192	-0.074074	-0.089942	-0.138895	0.097084	0.070668	-0.026396	-0.054383	0.033442	-0.053945	-0.053291	-0.130086	
/location/statistical_region/religions./location/religion_percentage/religion	0.001454	0.122363	0.175683	-0.067208	0.116913	-0.134773	-0.102297	-0.126903	0.091624	0.035077	0.027203	0.094591	-0.051836	0.104714	0.180362	0.143720	0.101195	-0.086577	-0.153678	0.060288	-0.019205	0.038765	0.077071	-0.135044	0.127518	-0.096412	-0.070881	-0.023872	-0.120494	-0.135861	-0.128129	-0.116010	0.103919	0.246495	0.007308	0.041947	-0.071147	-0.059597	0.060917	0.117952	0.067380	-0.017302	0.107882	0.185745	-0.162420	-0.002832	0.073002	-0.072753	-0.131391	-0.226971	0.182819	-0.044049	-0.070675	-0.119677	0.016866	-0.050875	-0.005188	0.023278	-0.038573	0.169686	0.093113	-0.118149	0.020324	0.117824	-0.010813	-0.007793	-0.161965	-0.088206	-0.076381	-0.082499	0.025180	-0.024165	0.046592	-0.010523	-0.211062	-0.017362	-0.077428	-0.116091	-0.021126	0.029851	-0.077312	0.055079	-0.177276	0.028802	-0.118825	0.037691	0.035746	0.001087	0.087412	0.030096	-0.104500	0.006926	-0.005420	-0.167459	0.109104	-0.064408	0.016909	0.090247	0.019816	0.096652	
/film/film_genre/films_in_this_genre	0.014137	-0.090498	0.067325	0.055813	0.050781	0.019962	-0.083481	0.112897	0.123815	0.164684	-0.142364	0.064040	-0.076684	-0.136880	-0.060531	0.130058	-0.085131	0.135833	-0.071415	0.164105	0.000452	0.148128	0.027107	-0.091689	0.109301	-0.117891	-0.133563	0.135907	0.151003	-0.096244	0.121592	0.092643	-0.079797	-0.015357	0.078521	0.121795	0.115499	0.036541	-0.118406	0.060105	-0.075916	-0.055030	-0.063837	0.131581	-0.094413	0.153958	-0.064534	-0.097609	0.162260	0.101026	-0.118012	0.115757	0.066126	0.068289	-0.132408	-0.080514	0.105195	-0.117245	-0.134252	-0.007842	-0.067917	0.024250	0.106334	0.134542	0.018463	0.092879	0.077755	-0.111645	0.081979	-0.064639	-0.026742	-0.082271	-0.004764	-0.099324	0.077547	0.093163	-0.120805	0.159905	0.135391	-0.118585	-0.005636	-0.095969	0.103507	-0.077510	0.030301	-0.150716	0.074241	0.102294	-0.036740	0.082168	-0.004625	-0.047593	0.149772	-0.104788	0.133722	0.109417	0.013783	-0.170139	0.050027	0.115478	
/tv/tv_genre/programs	-0.024260	-0.173857	0.206603	0.049409	-0.034708	0.106844	0.058017	-0.008367	-0.022852	0.052399	-0.088556	0.073969	-0.157669	-0.157164	-0.111823	0.053006	-0.071592	0.039854	-0.116171	0.060757	0.067637	0.158146	-0.026629	-0.002999	0.095728	-0.005913	-0.065419	-0.002941	0.113320	-0.112669	0.142068	0.060438	0.063261	-0.104756	0.091024	0.126357	0.109784	-0.096685	-0.146445	-0.108735	-0.160096	0.084515	-0.074246	0.105429	-0.080819	0.128883	-0.115853	-0.030190	-0.072325	0.102250	0.099030	0.054987	0.159165	0.171302	-0.174093	0.100632	0.037870	-0.033015	-0.157672	-0.131998	-0.039951	-0.068755	-0.008703	0.015044	0.188836	0.096874	0.006091	0.043171	0.134370	0.020433	0.075511	-0.164603	-0.061758	-0.075272	0.086434	0.119001	-0.036344	0.135273	0.133532	-0.025909	0.055882	-0.137629	-0.075836	-0.086812	0.203373	-0.114119	0.102929	0.137760	-0.045898	0.072979	0.118401	0.063093	-0.007811	-0.083592	0.092230	0.110610	0.010300	0.055911	-0.051680	0.088138	
/award/award_nominee/award_nominations./award/award_nomination/award	0.031608	-0.090281	0.074307	-0.027805	0.022403	0.034177	-0.009140	-0.016372	-0.097799	0.090498	-0.097760	0.163108	0.049962	-0.077989	0.039368	-0.102104	0.084745	-0.109773	0.089986	0.183189	0.095344	-0.197637	-0.039114	0.117526	0.080027	0.022808	-0.005396	0.079969	-0.029209	0.046689	0.073974	0.077315	0.004704	0.043300	0.126834	-0.107117	0.179907	0.005000	-0.022096	-0.038153	0.147722	-0.102218	-0.125785	-0.059478	-0.061288	-0.054081	0.004590	-0.199447	-0.098554	-0.124978	-0.240850	0.116329	-0.075275	0.071183	-0.130371	-0.245960	-0.117538	-0.138112	0.026744	-0.088889	0.100892	-0.059772	0.002321	0.025141	-0.076040	-0.026641	0.108144	0.094054	0.061996	0.211130	0.094162	-0.054890	-0.047242	-0.047962	-0.027071	-0.041242	-0.081856	0.023042	-0.056470	0.049329	-0.017169	-0.053012	-0.086471	-0.119394	0.117192	-0.159551	0.015308	0.082879	0.024180	0.092768	-0.064067	-0.232890	0.196938	0.100776	-0.102152	-0.053591	-0.076394	-0.103372	0.122518	-0.039847	
/music/genre/artists	0.087721	-0.087544	0.071848	0.108368	-0.059691	-0.108890	-0.126235	0.016299	0.130356	0.088578	0.096173	0.019783	-0.125483	-0.024909	0.100289	-0.107797	-0.083583	-0.039533	-0.116348	-0.047104	0.104054	-0.011123	0.113395	0.092144	-0.105451	0.066109	0.095931	-0.006233	0.139380	-0.043799	-0.129828	-0.139436	-0.152701	-0.046721	0.114012	0.065689	-0.018854	0.084305	0.007780	-0.124127	-0.169862	-0.044448	-0.079381	-0.101036	0.034848	0.125259	0.028410	-0.023069	-0.133134	0.083855	0.155086	-0.100092	0.143569	-0.129136	-0.085463	0.131828	-0.099946	0.088145	-0.092888	0.146157	0.035418	0.040883	0.167926	-0.077326	-0.061999	0.083546	-0.097158	-0.173651	0.040374	-0.098842	-0.048775	-0.160280	-0.098061	-0.100123	-0.123510	0.111762	-0.145232	-0.102103	0.132531	-0.047900	0.062926	0.066003	0.077665	-0.029974	-0.138908	-0.099902	0.097468	0.057539	0.073694	0.150022	0.123639	-0.067688	-0.127902	0.120517	0.100088	0.127429	-0.065791	0.070396	-0.126060	-0.107390	
/influence/influence_node/influenced_by	-0.014459	0.109046	0.147410	-0.007170	-0.011663	-0.025346	0.008053	0.003764	0.011778	-0.033953	0.002234	-0.029051	-0.036746	-0.011704	-0.002317	0.181295	-0.049380	-0.104512	0.032260	-0.004641	0.014646	0.016822	-0.042312	0.049504	-0.013901	0.062812	-0.017248	0.027521	-0.026289	-0.007918	-0.001841	0.037157	0.047084	0.009267	0.009163	0.038654	0.025667	0.009869	-0.004891	-0.028132	0.022978	0.017683	-0.000326	-0.028977	0.001969	0.064228	-0.022889	0.025278	-0.017646	0.014018	-0.031039	0.028077	-0.050845	-0.021823	-0.324059	-0.012366	0.026422	-0.029264	0.022522	-0.012062	-0.031898	-0.029689	-0.021968	-0.020955	-0.006371	0.002849	-0.043388	-0.024649	0.023643	0.019110	0.008467	0.034410	0.027253	0.029216	-0.021475	-0.017263	-0.004624	-0.004339	0.002366	0.004573	0.042703	-0.039618	-0.023854	-0.028977	0.008286	-0.032445	-0.023865	-0.046409	0.033430	-0.152613	0.020401	0.026427	0.029610	0.108725	0.040396	-0.010189	-0.003640	-0.026633	0.026518	-0.024033	
/education/educational_institution/students_graduates./education/education/student	0.125885	0.175910	0.033687	-0.056880	-0.072612	-0.130235	-0.059048	-0.068762	0.148092	-0.104157	0.040040	-0.038995	-0.061920	0.162966	0.095544	0.069290	-0.025655	-0.001943	-0.051125	-0.212282	-0.099093	0.154460	0.226374	0.045772	0.024769	0.128108	0.143611	-0.030795	-0.161692	-0.204145	0.150501	-0.051350	0.049436	-0.040349	-0.175076	0.107968	-0.021618	0.142949	0.182689	0.117803	-0.217358	-0.063234	0.126921	-0.085251	-0.065343	0.051643	-0.027616	0.115282	0.031996	0.117644	0.015388	-0.004874	0.075364	-0.081219	0.139486	-0.071595	0.051277	-0.079275	-0.059075	0.118872	-0.091051	-0.132135	-0.087683	0.033708	-0.034278	0.014384	-0.051595	0.043940	-0.073463	0.066750	-0.063067	-0.099657	-0.051059	-0.148210	-0.042624	0.100644	0.098087	0.010354	0.018752	0.068030	-0.060740	-0.056873	0.200190	-0.068087	-0.110774	-0.000167	0.067306	0.060930	0.019346	0.116858	0.190799	0.089952	-0.039810	-0.031373	0.033442	-0.089593	-0.017688	0.042955	-0.119114	-0.087910	
/organization/organization_member/member_of./organization/organization_membership/organization	0.157694	-0.137021	0.118593	-0.073066	0.156162	0.120387	0.055918	0.049688	-0.004902	0.090802	0.153851	0.128357	-0.001449	-0.015606	-0.021354	0.007046	0.077707	-0.101670	-0.028461	0.174808	0.108339	0.068608	-0.052643	-0.053043	0.120656	0.043242	-0.179512	0.167526	0.095228	-0.146246	-0.032582	0.013137	-0.026737	0.057338	0.101333	0.081718	0.003220	-0.110623	0.053587	0.065034	0.108059	-0.109728	0.096623	0.010130	0.015824	-0.035851	-0.017620	0.038232	0.128227	-0.196355	-0.026400	0.143341	-0.154029	0.086975	-0.023363	-0.063236	0.169395	-0.067084	-0.157575	-0.095833	0.122625	0.074874	0.042911	0.037080	0.152494	0.008705	0.097178	-0.205247	-0.016419	0.058475	-0.098440	0.046662	-0.119250	0.213386	0.025357	0.017735	-0.068285	-0.087890	-0.009752	-0.004010	0.003963	-0.053913	-0.039225	0.095190	0.050187	0.064942	0.096634	-0.131556	0.138807	0.103997	-0.037699	-0.037073	-0.071626	-0.160206	-0.020594	0.008813	0.140143	-0.060708	0.068712	-0.017031	
/people/person/place_of_birth	-0.143544	-0.121360	0.013559	0.023490	0.154651	0.076230	0.107162	0.157452	-0.079140	0.123696	-0.172006	0.112936	0.099265	0.022127	-0.121470	0.013733	-0.105035	-0.070095	0.077096	0.024287	0.059413	-0.141132	-0.187959	-0.041932	0.030749	-0.004666	0.002067	-0.033311	0.056523	0.129022	-0.119391	0.024651	0.200929	-0.042582	-0.055596	-0.048290	0.077782	-0.050243	-0.187301	-0.085448	0.073829	-0.073303	-0.103229	-0.098917	0.110963	-0.097665	0.060354	-0.001520	0.086255	-0.021391	-0.058633	0.099822	-0.031184	0.069246	-0.113930	0.004131	-0.152101	0.046283	0.027869	-0.101556	0.065131	0.107352	-0.048456	-0.023085	-0.179634	0.083139	0.051916	0.078731	0.035010	0.077017	0.008732	-0.031662	-0.009828	0.024101	0.142057	-0.124578	-0.008334	0.051474	-0.083187	-0.192523	-0.038855	-0.003585	0.119339	0.004078	0.102140	-0.128052	-0.099171	-0.073987	0.034894	-0.111152	-0.003804	-0.076944	-0.087272	0.116362	-0.122878	-0.006992	-0.058664	0.071032	0.088724	0.000090	
/common/topic/webpage./common/webpage/category	-0.124626	0.151856	0.011034	-0.033072	-0.135420	-0.102628	0.092554	-0.132022	-0.094428	-0.073434	-0.128276	-0.112752	0.132636	0.023981	-0.086448	-0.088100	-0.082011	0.071193	0.128628	-0.110175	0.096729	0.060269	0.078743	-0.102283	-0.098826	-0.123592	-0.104807	0.125929	-0.112765	0.124294	-0.037291	0.104355	-0.095597	0.131668	0.054724	0.102451	0.115636	-0.104697	0.145234	0.006335	-0.130470	0.032683	-0.058205	0.124435	-0.085666	0.077668	-0.096966	0.086523	0.073533	-0.116834	-0.093693	-0.048574	-0.120410	0.141183	-0.104101	-0.124330	-0.115664	0.111123	-0.053213	-0.060086	0.069741	-0.118510	0.082548	-0.103418	-0.151446	0.118840	0.150451	-0.092564	-0.129561	-0.131083	0.059632	0.149492	-0.042227	-0.131158	0.087472	-0.064486	-0.126833	-0.099443	-0.109213	-0.120223	-0.021323	-0.096555	-0.025263	0.081810	-0.114139	-0.117802	0.045386	-0.100891	0.101319	0.059667	-0.095619	0.085648	-0.056724	0.034648	-0.128494	0.075311	0.076927	0.052689	-0.138283	0.039559	
/media_common/netflix_title/netflix_genres	-0.009850	0.116544	-0.103412	-0.075371	-0.028352	-0.166821	0.047455	-0.049329	-0.104662	-0.119699	0.094302	-0.108147	0.153829	0.108301	0.069091	-0.157979	0.113518	-0.070797	0.147470	-0.176682	-0.023446	-0.158779	0.119974	0.155427	-0.121415	0.089679	0.124607	-0.105153	-0.119722	0.078106	-0.061663	-0.047066	0.077928	0.019461	-0.060274	-0.102852	-0.117756	-0.003651	0.166423	-0.033875	0.085920	0.090062	0.081871	-0.156718	0.097912	-0.094892	-0.075733	0.054343	-0.181433	-0.146942	0.015358	-0.104249	-0.038724	-0.058437	-0.048184	0.117274	-0.065534	0.163792	0.093838	-0.006706	0.093839	0.058371	-0.078421	-0.145016	-0.089583	-0.115953	-0.037968	0.125004	-0.082338	0.026175	0.112671	0.108271	-0.023629	0.057602	0.020298	-0.112376	0.087784	-0.162915	-0.123856	-0.121512	-0.109749	0.053981	0.012215	0.053015	-0.084547	0.149917	-0.017662	-0.091776	0.022753	-0.083134	-0.008581	0.029652	-0.108564	0.088600	-0.121641	-0.146017	-0.056155	0.156104	0.020903	-0.105764	
/sports/sports_position/players./american_football/football_historical_roster_position/team	-0.062520	-0.006447	-0.040843	0.064770	0.033182	0.077079	0.087346	0.133599	0.022280	-0.050815	0.010537	-0.053577	-0.017528	-0.121132	0.009736	-0.105816	-0.022770	0.088636	0.019675	-0.022782	0.007310	0.033312	0.087283	-0.059605	0.008842	0.091180	-0.081648	-0.027668	-0.112227	0.024012	-0.078913	0.041227	-0.123480	-0.069596	0.102891	-0.027198	-0.062079	-0.021082	0.032690	-0.042041	-0.035652	0.022956	-0.047031	0.051498	0.139896	-0.109104	-0.090597	-0.091717	0.069791	-0.033735	-0.075015	-0.086441	0.030082	-0.025022	0.073258	-0.085053	-0.060391	0.016806	-0.079268	-0.017554	0.026166	0.115560	0.067948	-0.050740	0.053794	-0.045719	-0.093723	-0.115654	0.036596	0.112518	0.019827	0.056682	-0.018518	-0.050001	0.005062	-0.080823	-0.059935	-0.093404	0.073067	0.048553	0.099101	0.091394	0.060267	0.095127	0.074841	-0.068677	-0.035019	0.126817	-0.050773	-0.141955	0.077265	-0.077457	-0.045210	-0.096257	-0.061945	-0.021562	-0.047399	0.130598	0.108325	0.018651	
/film/film/other_crew./film/film_crew_gig/film_crew_role	-0.073057	-0.105284	0.109131	-0.113700	0.148018	0.123770	0.085232	-0.104151	0.099217	-0.128588	0.147126	-0.131335	-0.110569	0.103791	0.179988	0.153383	0.101251	0.122714	-0.040208	0.121554	0.006173	0.015037	0.123037	0.112362	0.073797	-0.126778	-0.078208	-0.081003	0.118888	0.012627	0.095088	-0.133791	-0.053935	-0.125446	-0.115400	-0.079474	-0.019477	0.042696	-0.118080	0.014887	-0.066439	0.111022	-0.094806	0.146656	0.033756	0.097674	-0.040364	0.172349	-0.010920	-0.133108	0.073283	-0.087728	-0.099598	0.137052	-0.008316	0.121555	-0.086648	0.004560	0.096404	-0.086416	-0.074047	-0.111635	0.110261	0.040202	0.096088	0.055888	0.122542	0.122098	-0.117986	-0.166044	0.002831	-0.144099	-0.054050	0.067989	-0.125924	0.026137	-0.016408	-0.127779	-0.087568	0.087267	-0.122193	-0.008491	0.033248	0.101740	-0.110828	0.150710	-0.051694	-0.088350	0.078362	0.019428	0.149483	0.083055	-0.065323	-0.020601	-0.112690	-0.141433	-0.052941	0.118018	-0.080556	0.079273	
/award/award_ceremony/awards_presented./award/award_honor/award_winner	-0.038068	0.104292	0.062774	0.081007	-0.111749	-0.191296	-0.119813	-0.098886	0.113751	-0.046103	-0.054421	-0.196138	-0.150359	-0.044034	0.031157	0.084677	0.146274	0.081406	0.025576	-0.177799	-0.023740	0.016235	0.104365	-0.133601	-0.169773	0.031942	0.164462	0.037162	-0.051693	0.000883	-0.019211	0.009296	-0.097661	0.057925	-0.132994	0.031018	-0.087849	-0.069597	-0.068618	0.092056	0.057167	-0.045235	0.099111	-0.009453	-0.087139	0.039419	0.058032	0.070854	0.011870	0.144956	-0.046057	-0.033837	0.154272	-0.042925	0.025555	0.160809	-0.029661	0.074645	0.016512	-0.079620	-0.081628	-0.110769	0.072295	-0.075339	0.174323	0.089506	-0.070769	-0.138580	-0.138590	-0.083629	-0.183927	-0.088503	-0.081154	-0.007264	-0.145847	0.175087	-0.008535	-0.162306	0.015099	-0.083852	0.103221	0.146412	0.076895	0.008019	0.002108	0.160828	-0.018411	-0.098474	-0.012004	0.096510	0.135366	0.121933	-0.098578	-0.170185	0.069921	0.191529	0.022995	0.154036	0.078811	0.051049	
/film/film/country	-0.001056	-0.049199	-0.029537	0.035421	-0.143746	0.009478	0.031932	0.042931	-0.091696	-0.047830	-0.024361	-0.040314	0.062339	0.063269	0.053787	-0.185954	0.096167	0.140000	0.133476	-0.208783	0.024277	-0.128636	0.102721	0.120084	-0.187032	0.077066	0.171997	-0.189791	-0.029968	0.155777	-0.010844	-0.061202	0.016706	0.097055	0.038924	-0.097350	-0.069321	-0.074888	-0.019933	-0.029187	-0.013918	0.153399	0.038032	-0.115527	0.109324	-0.115760	-0.142124	0.072084	-0.043083	0.185521	-0.006683	-0.079929	0.055662	0.096981	-0.119644	0.128673	-0.172531	0.170201	0.087635	-0.151689	-0.046501	0.077146	-0.140324	-0.146011	-0.042166	-0.119096	-0.047922	0.119290	-0.052596	0.018661	0.111315	-0.143225	-0.102157	-0.129178	0.024993	-0.078421	0.144565	-0.064340	-0.127890	-0.045166	-0.143146	0.028132	0.023042	0.025089	0.089014	0.081633	-0.045358	-0.066549	-0.000741	-0.115844	0.123967	0.056041	-0.179774	0.108420	-0.072368	-0.115323	-0.014296	-0.091513	0.006711	0.054689	
/olympics/olympic_sport/athletes./olympics/olympic_athlete_affiliation/country	-0.085240	0.046926	0.055565	-0.012613	-0.181421	0.117678	-0.034156	0.177645	-0.098529	-0.087237	-0.131014	-0.137216	0.185119	-0.143978	0.080847	0.041012	0.023786	0.034143	0.007669	-0.179936	-0.052493	-0.112152	0.044903	0.031041	-0.120216	0.092803	-0.067174	-0.061756	0.035497	0.112429	-0.084197	0.131072	0.019057	-0.058792	-0.129476	-0.036298	-0.033712	-0.102136	-0.166758	-0.131998	-0.093781	0.107426	-0.144673	-0.016816	0.145491	-0.026648	-0.109726	-0.044584	0.036383	0.091596	-0.137715	-0.096018	0.123711	-0.132700	-0.079690	0.017263	-0.127691	0.137605	0.035657	0.073645	-0.125623	-0.098514	0.047886	-0.115924	-0.079309	-0.026350	-0.176686	0.079564	0.116230	-0.103607	0.019408	-0.140342	0.030681	-0.138062	0.056778	-0.087045	0.064758	-0.111757	0.036917	-0.211693	-0.042716	-0.102948	0.145732	-0.183560	-0.121842	-0.040930	0.036066	-0.051455	-0.119797	-0.093259	-0.040918	0.059504	-0.007109	0.081435	0.049352	0.101022	0.088720	-0.155244	-0.005160	0.050405	
/award/award_winning_work/awards_won./award/award_honor/award	0.070037	-0.073822	0.047649	0.087036	0.090401	-0.126175	0.016403	-0.172449	-0.141657	0.151295	0.044850	0.068625	0.031009	0.117554	0.178360	-0.105480	0.023054	-0.083684	0.134393	0.058243	0.106231	-0.107710	0.110562	0.091749	-0.139455	0.079799	0.190892	0.074513	-0.200835	-0.018582	0.116672	0.134355	-0.008969	0.135871	0.112134	-0.190216	0.012170	0.033642	0.117118	-0.107421	0.077649	-0.108859	-0.020796	-0.108579	-0.096953	-0.131888	0.076079	-0.056813	-0.062768	-0.030177	-0.025689	-0.071956	0.103632	0.075473	-0.093387	-0.101414	0.017997	-0.010081	0.120796	-0.084996	-0.012100	-0.164036	-0.083420	0.109607	0.003005	-0.119293	-0.107574	0.081502	-0.125359	-0.007904	0.062645	-0.102092	-0.074638	-0.070604	-0.104909	-0.066053	-0.052227	-0.135970	-0.134850	0.080457	-0.143608	-0.098831	-0.057160	0.021108	0.017314	-0.073077	-0.060060	0.135545	0.119230	0.156623	-0.015534	-0.117696	0.084612	0.052560	-0.128545	-0.034606	-0.129691	-0.070735	0.126229	0.112165	
/base/schemastaging/tv_actor_extra/regular_dubbing_performances./base/schemastaging/tv_star_dubbing_performance/program	-0.106245	-0.068957	0.092207	-0.034491	0.030312	0.056826	0.090539	-0.033897	-0.052718	-0.053785	-0.043321	0.053589	0.015412	-0.055149	-0.068813	0.092623	-0.105897	-0.040101	-0.049686	0.041744	-0.015166	-0.016422	-0.070211	0.070377	-0.051187	0.034411	-0.051874	0.085736	0.030635	0.000367	-0.052588	-0.097412	0.074086	0.019259	-0.014100	-0.029936	0.083784	-0.130283	-0.004184	-0.054506	-0.029306	-0.024887	-0.041861	-0.037683	0.027877	0.037885	-0.034324	0.053152	-0.013397	-0.024810	0.008018	-0.007017	0.023259	0.019576	-0.152647	-0.029496	-0.093930	-0.044514	-0.024647	0.078681	0.099596	0.044225	0.022098	-0.013913	-0.013476	0.085578	0.014148	0.069886	0.154054	0.055412	0.090447	-0.021635	0.065609	0.028477	0.014884	-0.015070	-0.041141	0.061648	-0.025928	0.003973	0.053396	-0.053260	0.011285	-0.060697	0.001531	-0.106168	-0.047782	-0.071356	0.071174	-0.043291	-0.070777	-0.011868	-0.084061	-0.088590	-0.005645	-0.041202	-0.048920	-0.078977	-0.040715	-0.074961	
/film/film/genre	-0.022598	0.105591	-0.073917	-0.042741	-0.069232	0.003117	0.091408	-0.140914	-0.129563	-0.168563	0.133839	-0.075052	0.075319	0.132932	0.047774	-0.134042	0.071474	-0.112911	0.109918	-0.160134	0.001184	-0.176062	-0.037390	0.122789	-0.113646	0.118994	0.114748	-0.148789	-0.163492	0.102071	-0.115073	-0.092693	0.069426	0.024749	-0.061908	-0.108532	-0.125530	-0.006987	0.119912	-0.048855	0.055716	0.053277	0.085173	-0.141321	0.098203	-0.173706	0.045595	0.106340	-0.149926	-0.105796	0.088200	-0.096422	-0.062070	-0.086193	0.145199	0.132944	-0.104345	0.079614	0.141737	0.002272	0.065009	-0.028345	-0.090182	-0.150395	-0.022353	-0.076344	-0.072335	0.129071	-0.056056	0.043980	0.024817	0.070688	0.029594	0.098895	-0.099603	-0.101322	0.088248	-0.163970	-0.120462	0.101918	-0.014162	0.100287	-0.092781	0.077977	-0.021050	0.153404	-0.072014	-0.087953	0.032015	-0.079747	0.009552	0.047454	-0.121970	0.090400	-0.139534	-0.107906	-0.001755	0.148324	-0.058138	-0.118822	
/award/award_nominated_work/award_nominations./award/award_nomination/award_nominee	0.094715	-0.029722	0.010186	0.159336	0.067293	-0.145421	0.042671	-0.147487	0.007478	0.006829	0.144358	-0.135903	-0.009995	0.114267	0.110758	-0.041147	0.073318	0.038400	0.074861	-0.138753	-0.017601	0.046307	0.146083	-0.008399	-0.160302	0.090942	0.175199	0.024716	-0.106039	-0.024665	0.007841	0.049648	-0.023415	0.121368	0.062776	-0.112087	-0.124507	0.042435	0.116113	-0.038402	-0.048967	-0.029555	0.116119	-0.050024	-0.045630	-0.040448	0.057748	0.122909	-0.006975	0.050136	0.165951	-0.122845	0.065274	0.028821	0.039918	0.163376	0.040854	0.056790	0.078474	-0.040671	-0.123597	-0.093024	-0.123985	0.069363	0.150526	-0.070514	-0.137760	0.012352	-0.155356	-0.143253	-0.065602	-0.040119	-0.043698	-0.040265	-0.087677	-0.035988	0.031740	-0.147309	-0.079468	0.083308	-0.117765	-0.028605	0.020098	0.130774	-0.076367	0.114169	-0.056963	0.083981	0.066506	0.066683	0.062121	0.131122	-0.126962	-0.018746	-0.030249	0.068093	-0.031328	0.056422	0.034971	0.120977	
/film/film_distributor/films_distributed./film/film_film_distributor_relationship/film	-0.048359	0.110982	-0.033997	-0.128426	-0.051548	0.055389	-0.031056	0.171783	0.016998	-0.048723	-0.150542	0.178489	-0.020775	-0.094496	-0.108533	0.075189	-0.068187	0.011315	0.011395	0.219306	0.033893	0.017323	-0.088735	0.052203	0.128752	-0.129816	-0.180493	-0.037699	0.053148	-0.111702	0.071649	0.018765	-0.111846	-0.164303	-0.159051	0.159748	0.131853	0.042695	-0.037634	0.029162	-0.025324	0.030192	-0.149510	0.069751	0.027191	0.087829	0.145815	-0.068793	0.016004	0.002710	-0.165558	0.149404	0.019790	-0.045491	0.040888	-0.198292	0.130775	-0.077482	-0.116104	-0.003553	0.003021	-0.004698	0.157730	-0.072865	-0.160179	-0.035229	0.133376	-0.001707	0.181744	0.149169	-0.103391	-0.008312	0.092332	-0.108433	-0.044520	0.049371	-0.001535	0.138873	0.102299	-0.081614	0.114395	0.037916	-0.052156	0.029381	0.000521	-0.193874	0.098551	-0.086201	-0.059422	0.085601	-0.023142	-0.112351	0.162007	0.067048	0.020543	-0.153297	0.009522	-0.058870	-0.094157	-0.145475	
/location/statistical_region/rent50_2./measurement_unit/dated_money_value/currency	0.036788	0.072721	-0.126399	0.003491	-0.062002	0.046047	-0.189182	-0.113283	-0.022155	-0.009758	0.016046	-0.029152	0.060635	-0.107844	0.000655	-0.074945	0.176528	0.188313	0.067008	0.120395	-0.217340	-0.035210	0.136192	0.025689	-0.047747	0.126413	0.002693	-0.128574	0.071646	-0.032948	-0.138742	-0.017880	-0.179687	0.055792	-0.030016	0.180434	-0.079944	-0.047441	-0.037359	0.071505	0.114155	-0.124514	0.054820	0.009923	0.078286	-0.125686	-0.107066	-0.000996	-0.182207	-0.134083	-0.031380	0.130603	-0.018353	-0.060498	0.073626	-0.105827	0.151466	0.063755	-0.208334	0.099996	0.057614	0.014055	0.015531	-0.064101	0.054088	-0.174468	0.050054	-0.173507	0.005703	-0.147558	-0.031098	0.054260	-0.140073	-0.031205	-0.031875	0.123955	-0.096103	-0.056467	-0.042582	-0.045953	-0.125799	0.064364	0.150487	0.008546	0.099253	0.070992	0.071766	0.118386	-0.146466	0.036577	-0.124334	0.090027	-0.079494	-0.075324	0.081752	0.027547	0.111337	-0.222092	-0.090355	0.041247	
/film/film/estimated_budget./measurement_unit/dated_money_value/currency	-0.008269	-0.171344	0.109870	0.171216	-0.080495	-0.041038	0.042893	-0.122968	-0.050292	0.096332	-0.040783	-0.101176	-0.034599	0.028637	0.056845	-0.098548	0.150395	0.077998	0.082163	-0.075507	-0.067284	-0.026034	0.020681	0.213558	0.028390	0.147927	0.195627	-0.079877	-0.132159	0.042433	0.052753	0.148674	0.047526	0.048353	-0.037329	0.075515	-0.148970	-0.083175	-0.053937	0.048844	0.030027	0.039516	0.079548	-0.029525	0.044539	-0.169352	-0.099281	0.126766	-0.220784	-0.001044	-0.018532	0.038398	0.092951	-0.009311	0.086698	0.075323	0.023813	0.253477	-0.062558	-0.120409	0.045984	0.044807	-0.080795	-0.005093	0.188217	-0.008055	-0.089521	0.009720	-0.060210	-0.124720	0.083281	-0.143625	-0.041971	-0.144394	-0.034184	-0.002175	0.093051	-0.066466	-0.188721	-0.006825	0.028363	0.132900	-0.076639	0.162388	0.097408	0.076967	-0.071988	0.113609	0.019032	-0.001679	0.021538	0.164514	-0.159819	0.182609	0.014303	0.104863	-0.159284	0.014324	-0.101818	-0.033842	
/location/administrative_division/second_level_division_of	0.102455	0.067370	-0.186102	0.001517	-0.144833	0.070118	-0.050850	0.068247	-0.041932	-0.075581	-0.114234	-0.027372	0.077322	-0.224978	-0.058676	-0.043566	0.183584	0.307912	-0.085963	-0.044351	-0.102289	-0.083074	0.140514	-0.118237	-0.008314	0.085926	0.082537	-0.193653	0.058471	-0.024278	-0.067788	0.080554	-0.155640	0.045320	-0.042345	0.036700	-0.096066	-0.003208	0.073126	0.001162	0.121889	0.135280	-0.002321	0.046056	0.112051	-0.016206	-0.108995	-0.070829	-0.089976	-0.000575	-0.045713	-0.000087	0.041711	-0.032777	-0.016278	0.024811	0.079471	0.031914	-0.037319	0.036506	0.045504	0.041142	-0.173391	-0.062261	-0.125839	-0.100282	0.078963	0.007257	0.132368	0.034538	-0.108104	-0.066230	-0.046436	0.099435	0.129230	0.064562	-0.015083	-0.095243	0.045506	-0.039087	-0.039634	0.023060	0.233568	-0.151054	0.006521	0.042702	0.171183	-0.114367	-0.099921	0.001715	0.050146	-0.125218	-0.094023	-0.077126	-0.003459	0.002689	0.021227	-0.103970	-0.104745	0.057937	
/government/legislative_session/members./government/government_position_held/district_represented	0.035096	-0.067438	0.020819	-0.093990	0.020588	0.150446	0.088747	-0.071196	-0.017126	0.120421	-0.036536	-0.175439	0.144625	0.065403	-0.120230	-0.096163	-0.046766	0.086069	0.030977	0.010083	0.185354	-0.036340	-0.034270	-0.092949	0.031701	0.066739	0.135092	-0.037510	0.021732	0.211346	0.029082	0.215198	0.014384	-0.256568	0.026958	-0.022042	0.077253	0.128436	-0.082732	0.133691	0.142486	0.104673	-0.099198	-0.054154	0.108572	-0.095702	-0.069242	-0.110719	0.100655	0.003349	-0.070540	-0.089931	0.112602	0.096589	-0.073352	0.059150	-0.045180	0.111869	0.090003	-0.043626	0.027752	-0.005745	-0.130864	-0.107064	-0.064492	0.095641	-0.069858	0.145227	0.071653	0.078022	-0.119780	-0.040800	-0.186803	0.152728	0.133361	0.139890	-0.015085	0.021928	-0.099485	-0.111066	0.168520	0.122419	0.088215	0.020597	0.022498	-0.038455	0.072112	-0.092120	-0.083108	0.024659	0.148299	0.091792	-0.038567	0.156235	-0.119991	0.118370	0.152665	-0.080877	-0.021176	-0.016014	
/sports/sports_team/roster./american_football/football_historical_roster_position/position_s	0.024221	0.036455	0.037530	-0.039527	-0.046081	-0.058443	-0.085331	-0.117818	-0.019783	0.039842	-0.011475	0.050587	0.020469	0.114376	0.001449	0.128801	0.053656	-0.085843	-0.009129	0.001204	-0.003758	0.003056	-0.081837	0.020068	-0.053698	-0.074774	0.051458	0.088550	0.057388	-0.010775	0.059230	-0.072753	0.142266	0.067307	-0.083930	0.037435	0.062309	-0.002929	-0.022751	0.046175	0.034388	0.025298	0.062212	-0.029393	-0.128660	0.108748	0.083834	0.088818	-0.059276	0.021252	0.079472	0.086723	-0.032423	0.039603	-0.046823	0.059242	0.079580	0.003501	0.068929	-0.015727	-0.041753	-0.103789	-0.089269	0.035401	-0.075890	0.052220	0.080597	0.110095	-0.028838	-0.073625	0.006500	-0.021837	0.022530	0.007266	0.078093	0.086446	0.081252	0.088607	-0.080340	-0.026959	-0.083521	-0.067403	-0.037859	-0.078080	-0.111696	0.022291	0.013309	-0.117419	0.034481	0.130678	-0.107655	0.078922	0.024504	0.111487	0.064229	0.064832	0.014083	-0.116601	-0.080241	-0.039214	
/government/government_office_category/officeholders./government/government_position_held/jurisdiction_of_office	-0.087831	-0.059495	0.071991	0.091848	-0.070793	0.108864	-0.104959	0.193646	-0.032486	0.090107	-0.097189	-0.160898	0.057436	-0.031537	-0.028821	-0.081644	0.056823	0.071464	0.010185	-0.000152	-0.076204	-0.076176	0.059334	0.141322	0.053627	0.041398	0.176797	-0.038374	0.072952	0.009150	-0.078441	0.210143	-0.057874	-0.173678	-0.011467	0.078806	0.009165	0.057553	-0.169866	-0.020825	-0.234565	0.065792	-0.111220	-0.132293	-0.051497	-0.105759	-0.004010	-0.015038	0.001841	0.160717	-0.038604	0.003133	0.043207	0.172406	-0.104183	0.022760	-0.188794	-0.056152	0.057092	-0.024228	-0.056796	-0.114325	-0.116753	-0.124734	-0.149848	-0.029002	-0.129942	0.101877	0.165471	-0.025716	-0.100499	-0.092480	-0.128043	0.055459	0.057505	-0.069694	-0.007078	0.158565	-0.077273	-0.182187	0.044986	-0.077560	-0.025572	-0.190334	0.112738	-0.071730	-0.117627	-0.115779	-0.141663	-0.142254	0.061239	-0.002989	-0.084964	-0.067477	-0.146995	-0.010617	-0.083844	-0.035469	-0.104714	0.053961	
/award/award_nominee/award_nominations./award/award_nomination/nominated_for	-0.066357	0.035391	-0.021530	-0.130278	-0.068881	0.177390	-0.040012	0.115547	-0.006039	-0.000584	-0.147371	0.148007	0.005753	-0.115736	-0.127341	0.034864	-0.066679	-0.026440	-0.036092	0.141839	0.016775	-0.026488	-0.134470	0.005753	0.151524	-0.079529	-0.198598	-0.019725	0.090584	0.028974	-0.030602	-0.063411	0.029592	-0.126758	-0.049029	0.104136	0.116807	-0.036162	-0.127136	0.031390	0.070862	0.016069	-0.138113	0.051294	0.029037	0.056872	-0.063748	-0.132613	0.013525	-0.034106	-0.167100	0.127895	-0.085218	-0.006376	-0.019266	-0.146247	-0.046128	-0.065537	-0.067193	0.055155	0.129109	0.090617	0.144112	-0.075478	-0.174136	0.070397	0.135800	-0.014556	0.143341	0.157658	0.058208	0.048790	0.036957	0.022924	0.104674	0.033463	-0.055722	0.162817	0.078650	-0.060420	0.101015	0.012532	-0.013197	-0.116855	0.059690	-0.106785	0.095527	-0.077154	-0.068460	-0.058522	-0.065347	-0.113461	0.112511	0.026008	0.026944	-0.059796	0.032243	-0.065036	-0.050907	-0.134466	
/people/deceased_person/place_of_death	0.005847	-0.130842	-0.030571	0.043300	0.124363	0.080308	0.076252	0.135446	-0.096124	0.175362	-0.019977	0.147115	0.049871	0.050922	-0.096007	-0.143824	-0.021474	-0.125346	0.125386	-0.050843	0.047402	-0.130935	-0.095098	-0.073026	0.071443	-0.012407	-0.018327	-0.176311	0.035324	0.035026	-0.086054	0.101756	0.150729	-0.078547	-0.082908	-0.080125	-0.095699	-0.089958	-0.107803	-0.145537	0.068465	-0.131237	-0.061067	0.004882	0.020627	-0.127587	0.189186	0.035596	0.113743	0.004440	-0.030790	0.030772	-0.139462	0.030261	-0.099710	-0.014935	-0.142279	0.111650	0.001936	-0.126045	0.076075	0.159283	-0.140899	0.061195	-0.187981	-0.017188	0.050543	0.109466	0.035342	0.157537	0.071385	-0.030379	-0.072126	0.087232	0.154967	-0.099165	-0.075377	0.073808	-0.127072	-0.222372	-0.017571	-0.041810	0.205510	-0.057209	0.164599	0.063804	-0.081051	-0.097503	-0.118860	0.013591	0.047583	-0.147394	-0.092041	-0.044533	-0.107266	0.038884	-0.127175	0.074338	-0.063031	0.050449	
/music/group_member/instruments_played	-0.046899	-0.022076	0.156705	-0.171581	-0.102138	0.175974	0.030432	-0.012346	-0.152743	0.187079	-0.186330	0.144500	0.092422	-0.104802	0.031515	0.165656	0.094667	0.086355	-0.110492	-0.061359	-0.149304	-0.139162	0.062998	-0.132506	0.024305	-0.141651	-0.105993	-0.017577	-0.090543	0.020944	0.127352	-0.080723	0.055436	0.072957	-0.123603	-0.110683	0.056157	-0.149465	0.124028	-0.041995	0.128703	0.106183	0.033537	-0.083370	-0.129830	0.005417	-0.034440	0.117660	0.072286	-0.134226	-0.061577	0.023736	-0.031404	0.074321	-0.121754	-0.071308	-0.066376	0.106047	0.070515	0.063633	0.107946	-0.094466	-0.109139	-0.045748	-0.139436	-0.080008	-0.031407	0.065957	-0.135905	0.117111	-0.032648	0.128846	0.063793	0.092763	0.066524	0.067412	0.042704	0.006538	-0.148459	-0.045508	0.050417	0.063350	0.116784	0.094854	0.150850	-0.045052	-0.080064	0.085594	-0.102826	-0.120303	-0.138759	-0.131810	0.016406	-0.085523	-0.149036	-0.058372	-0.101906	0.008494	-0.034121	0.093181	
/film/production_company/films	-0.063922	0.162665	-0.021802	-0.129831	-0.063206	0.014360	-0.047681	0.161341	0.035804	-0.028493	-0.193925	0.142254	0.004483	-0.130916	-0.101275	0.082043	-0.108914	-0.014241	0.001125	0.206419	0.016758	0.021481	-0.096822	0.041936	0.154052	-0.079687	-0.139295	-0.043530	0.070568	-0.064337	0.058445	0.002636	-0.121337	-0.139538	-0.120716	0.166619	0.133420	0.047487	-0.046553	0.053828	-0.040363	-0.011669	-0.130551	0.079027	-0.003525	0.138362	0.107761	-0.131906	0.036044	0.006423	-0.157736	0.158330	-0.018139	-0.030854	0.002247	-0.202681	0.164210	-0.094309	-0.067186	-0.004469	-0.007388	-0.015825	0.157678	-0.080441	-0.175066	-0.058613	0.139131	0.000847	0.141277	0.196548	-0.129512	-0.013876	0.057143	-0.113648	-0.059636	0.048666	-0.014110	0.114676	0.113045	-0.058990	0.098561	0.033629	-0.055493	0.023741	0.018864	-0.156046	0.132332	-0.147657	-0.062467	0.095234	-0.018756	-0.129324	0.164838	0.046100	0.021765	-0.132475	0.014164	-0.045869	-0.037371	-0.102172	
/sports/pro_athlete/teams./sports/sports_team_roster/team	-0.089815	-0.040958	0.034683	-0.011553	0.114279	0.013788	0.034879	0.070969	-0.094136	0.015165	-0.014932	-0.124716	-0.086642	-0.139097	-0.031814	-0.049066	-0.119901	-0.038541	0.014684	-0.018583	0.112444	0.071123	0.024114	-0.069847	0.007121	-0.008352	-0.057664	0.024356	0.050068	-0.022621	0.048256	0.063492	0.041241	0.027036	0.023950	-0.072787	0.146085	-0.062764	-0.060023	-0.037470	0.051963	-0.031938	-0.036534	0.023897	0.068954	-0.019224	-0.055692	-0.083808	0.032430	-0.096769	-0.056442	0.025381	-0.038918	0.034090	0.075502	-0.067743	-0.026593	0.053971	0.007107	-0.069090	0.066929	0.057708	0.049000	0.060255	0.080389	-0.002233	-0.081013	-0.085725	0.054925	0.041802	0.042657	-0.008180	-0.002565	0.035827	-0.094028	-0.021820	0.069835	-0.031453	0.022446	-0.025476	0.007652	0.013166	-0.019334	0.062400	0.018545	-0.024111	-0.060197	0.062021	-0.047896	-0.123536	0.035581	-0.028999	-0.112699	-0.036253	-0.041391	-0.063745	-0.095301	0.067762	0.114715	0.137166	
/base/schemastaging/athlete_extra/salary./base/schemastaging/athlete_salary/team	-0.049205	-0.046628	0.035987	-0.000777	0.118198	0.023237	0.057750	0.114339	-0.097934	0.028280	-0.040105	-0.083233	-0.077321	-0.065687	-0.015197	-0.049873	-0.107052	-0.021222	0.031363	-0.050445	0.096965	0.056617	0.013066	-0.058927	0.035012	0.001873	-0.044118	0.024211	0.026459	-0.028228	-0.000035	0.058365	0.040837	0.013461	0.025992	-0.066258	0.051561	-0.035223	-0.051448	-0.034613	0.057670	-0.029989	-0.042411	0.008365	0.051293	-0.014355	-0.036610	-0.050198	0.047462	-0.088656	-0.031635	0.030877	-0.016053	0.040849	0.061571	-0.050494	-0.004366	0.047840	-0.000910	-0.045752	0.064123	0.043857	0.033478	0.078895	0.063516	0.038160	-0.080369	-0.054491	0.014513	0.044164	0.033428	-0.007628	-0.008202	0.034571	-0.079695	-0.026617	0.035308	-0.012803	0.015094	0.000033	0.014349	0.020828	-0.021215	0.051098	-0.009623	-0.011701	-0.065252	0.046189	-0.051171	-0.104906	0.048188	-0.046247	-0.047073	-0.034249	-0.058703	-0.088068	-0.037407	0.061668	0.087127	0.062143	
/music/artist/track_contributions./music/track_contribution/role	-0.001313	0.067053	0.123420	-0.191529	-0.049181	0.155526	0.068406	0.017236	-0.023809	0.141027	-0.159342	0.130915	0.047682	-0.076598	0.054003	0.085369	0.088760	-0.073547	-0.075986	-0.085896	-0.110010	-0.119465	0.044959	-0.085812	-0.007022	-0.128373	-0.099662	0.061818	-0.106144	0.147498	0.097898	-0.165405	0.055406	0.100682	-0.054786	-0.047843	0.124444	-0.120256	0.155899	-0.054344	0.047205	0.113680	0.059531	-0.078549	-0.028450	-0.043395	-0.077149	0.123818	0.025004	-0.127835	-0.045336	0.050212	-0.026228	0.007742	-0.114290	-0.034814	-0.060317	0.175633	0.043670	0.120048	0.121609	-0.086022	-0.118186	0.066014	0.011842	-0.108833	-0.040575	0.085468	-0.119621	0.137726	-0.076671	0.117663	-0.056027	0.081821	0.038304	0.083486	0.047222	0.005167	-0.142727	-0.085074	0.074964	-0.086143	0.067333	0.111261	0.142089	-0.075770	-0.071402	0.133311	-0.140739	-0.086178	-0.198661	-0.185023	0.157123	0.086657	-0.175605	-0.095747	-0.120286	-0.135584	-0.018311	0.066126	
/organization/organization/acquired_by./business/acquisition/acquiring_company	0.035835	-0.028857	0.004073	-0.007736	-0.006172	-0.015046	-0.020359	0.019080	-0.038939	-0.001053	0.005774	-0.010517	0.042035	-0.048459	0.052722	-0.011389	0.009467	0.027910	0.053210	-0.019612	-0.037315	-0.045914	0.013517	0.058607	0.022843	-0.050362	-0.016647	0.047738	0.005444	0.016480	-0.033070	0.023657	-0.016527	0.000560	0.018291	-0.029176	0.003454	0.019759	-0.008721	-0.014931	0.004807	-0.016014	-0.029350	-0.023603	-0.020013	-0.027791	-0.064180	-0.007002	-0.040961	-0.022214	0.038949	0.050138	0.010322	-0.012101	0.026460	-0.025132	0.006441	0.050684	0.017598	0.035300	0.039551	0.048248	-0.036798	-0.054016	-0.040074	0.008223	-0.010229	-0.006217	0.005044	0.021370	0.062045	0.066205	0.075884	-0.028486	-0.024938	0.001473	0.000960	-0.010449	-0.027791	0.012873	0.015505	-0.016285	-0.011895	-0.001219	-0.023813	-0.017734	-0.021650	-0.012165	-0.011685	0.034565	0.028214	0.009213	-0.002954	-0.014309	-0.002465	-0.010890	-0.045746	-0.036457	0.033727	0.018524	
/music/instrument/instrumentalists	0.055481	0.004052	-0.100565	0.166508	0.049609	-0.168139	-0.034377	0.006729	0.158224	-0.193188	0.179618	-0.152425	-0.072703	0.137192	-0.027729	-0.165512	-0.096957	-0.097619	0.132464	0.028898	0.130749	0.147087	-0.069897	0.127496	-0.017199	0.152693	0.103908	0.020678	0.090458	-0.018533	-0.087535	0.121402	-0.042227	-0.074576	0.132718	0.117007	-0.045668	0.142803	-0.119216	0.022881	-0.125863	-0.103008	0.019701	0.087707	0.121853	0.001979	0.029606	-0.109126	-0.025129	0.160322	0.055438	-0.025004	0.039621	-0.093117	0.108493	0.079479	0.058950	-0.111098	-0.039687	-0.057253	-0.116031	0.103655	0.122596	0.057630	0.135520	0.090635	0.044783	-0.075895	0.142053	-0.130395	0.011086	-0.125135	-0.080614	-0.069983	-0.066247	-0.070049	-0.054818	-0.017510	0.154412	0.047752	-0.039814	-0.043775	-0.072564	-0.106259	-0.164699	0.037611	0.097230	-0.074360	0.133225	0.091072	0.124973	0.126522	-0.038168	0.113515	0.170732	0.109699	0.082585	-0.026300	-0.001135	-0.095229	
/military/military_combatant/military_conflicts./military/military_combatant_group/conflict	-0.030655	-0.104995	0.078135	-0.069278	0.067240	-0.020930	-0.026428	-0.111620	0.078554	0.129822	0.126105	-0.108384	-0.109670	-0.032191	-0.063771	0.089762	-0.066981	-0.180232	0.069206	0.192258	-0.036994	0.051910	-0.065080	-0.001809	-0.093221	-0.136996	0.017993	0.098035	-0.191307	-0.012246	0.201384	-0.001942	0.070884	0.139460	-0.067343	0.003083	0.063455	0.006102	0.169944	0.080525	0.104712	-0.018813	-0.111206	-0.050388	-0.110476	0.037470	0.037285	0.007053	0.024409	-0.137028	0.009606	0.082753	-0.065083	-0.009947	-0.080677	0.144282	-0.036721	-0.065236	-0.130252	0.167875	-0.053939	0.002870	0.105862	0.153977	0.249789	0.051803	0.013897	-0.002919	-0.029258	0.017015	-0.032247	-0.023396	-0.079765	-0.015934	0.076341	0.127740	-0.107140	0.136958	0.133977	0.114528	0.028060	0.012801	-0.020214	0.012500	-0.183375	-0.038121	-0.123616	0.010125	0.019555	0.113100	-0.095005	0.062769	0.192359	-0.034811	-0.057105	-0.069805	-0.049021	0.072144	-0.028538	0.071517	
/people/person/education./education/education/institution	-0.121972	-0.199542	-0.027012	0.059473	0.087266	0.127561	0.052840	0.070533	-0.146539	0.117524	-0.027463	0.040937	0.070524	-0.176664	-0.105672	-0.069867	0.024543	-0.003215	0.055950	0.199050	0.113895	-0.127167	-0.222774	-0.044582	-0.033841	-0.097653	-0.150557	0.031575	0.158280	0.208883	-0.154759	0.057827	-0.059207	0.052743	0.150888	-0.107448	0.006893	-0.153681	-0.177572	-0.118287	0.214553	0.070863	-0.122451	0.082442	0.080720	-0.047483	0.030246	-0.117473	-0.013200	-0.128131	-0.003241	0.011406	-0.057808	0.079426	-0.147366	0.033558	-0.070104	0.095617	0.037535	-0.106160	0.065131	0.120070	0.118816	-0.026864	0.036184	0.002627	0.048953	-0.045927	0.071208	-0.062441	0.071746	0.082398	0.038418	0.149956	0.044594	-0.100801	-0.088111	-0.010703	-0.034263	-0.072032	0.083777	0.068875	-0.187821	0.086799	0.092371	0.017299	-0.075544	-0.047904	-0.035214	-0.110789	-0.203440	-0.119054	0.042588	0.028459	-0.032077	0.075051	0.000075	-0.048306	0.108855	0.068755	
/award/award_category/winners./award/award_honor/honored_for	-0.079114	0.113322	-0.049707	-0.097056	-0.089512	0.131365	-0.024962	0.145593	0.122432	-0.138729	-0.050739	-0.042683	-0.037114	-0.079791	-0.167109	0.111818	-0.028679	0.065488	-0.133700	-0.062995	-0.094207	0.107695	-0.128777	-0.072239	0.131924	-0.132535	-0.182075	-0.100125	0.192165	0.034979	-0.084838	-0.134796	0.023361	-0.159302	-0.129915	0.177933	-0.060170	-0.049439	-0.135839	0.073971	-0.070227	0.090391	0.015996	0.101305	0.090279	0.100991	-0.108956	0.069932	0.089101	0.026796	0.033471	0.100650	-0.076745	-0.088757	0.084378	0.095518	-0.020741	0.000032	-0.118408	0.110332	0.009650	0.164024	0.101196	-0.132707	-0.037212	0.097776	0.099444	-0.106262	0.127161	0.008664	-0.105026	0.079225	0.102201	0.087310	0.094190	0.083021	0.036821	0.131527	0.148746	-0.085662	0.162372	0.081665	0.077132	-0.029099	0.001576	0.091881	0.016840	-0.139033	-0.131218	-0.146438	0.022218	0.096504	-0.080061	-0.016307	0.120359	0.046842	0.099154	0.066722	-0.146477	-0.077262	
/people/person/gender	-0.140990	-0.152013	-0.142491	-0.096155	0.088490	-0.102201	-0.083015	-0.082291	-0.113896	-0.088633	0.107204	0.094295	0.140743	0.083659	0.021640	-0.115389	-0.132760	0.100354	-0.057852	0.071786	-0.080969	0.093611	0.058538	-0.145781	0.096357	0.104442	-0.152074	0.056497	-0.060917	-0.070784	-0.106779	-0.092048	-0.073335	0.071675	-0.112810	0.091489	-0.083718	-0.029410	-0.147463	-0.110414	0.076542	-0.065054	-0.016577	-0.094366	-0.077768	-0.062472	-0.101980	-0.146441	0.121642	-0.091696	-0.139562	0.158907	0.001292	-0.008061	-0.117500	-0.083261	0.090525	0.116988	0.053784	-0.059651	0.040740	-0.070564	0.154284	-0.031337	0.051593	0.035455	-0.151414	0.133590	0.094896	0.132885	0.081684	-0.094171	0.018846	0.099769	0.092120	0.160775	-0.105749	0.106000	-0.108667	-0.089523	-0.075853	-0.138928	0.108031	0.077905	0.029900	-0.102684	0.056011	-0.138318	0.085004	-0.151875	-0.021023	-0.124629	-0.079067	-0.099510	-0.085374	-0.078546	-0.115504	-0.100975	0.125701	-0.078091	
/business/job_title/people_with_this_title./business/employment_tenure/company	0.062113	-0.106547	-0.033383	0.119758	-0.082126	-0.095785	-0.183504	0.178403	-0.099155	-0.005918	0.093659	-0.201932	0.033652	-0.007412	0.030563	-0.150982	0.103153	0.117669	-0.116876	0.116415	0.028062	-0.043188	0.112093	-0.053314	0.094948	0.079623	0.000301	0.148731	-0.021200	0.037290	-0.051853	0.130950	-0.053622	-0.080871	0.150210	-0.026787	-0.021055	0.109900	-0.128403	-0.092117	-0.023775	0.094777	0.048139	-0.127717	-0.111339	-0.106705	-0.106458	-0.073193	0.054834	0.122123	0.074139	-0.114740	0.063055	0.153956	-0.128310	0.130423	-0.107326	-0.061968	-0.065534	-0.164123	-0.001343	0.114668	-0.165934	0.067089	0.092375	-0.062741	-0.086021	-0.009992	0.053406	0.036552	-0.060575	0.124751	0.143890	0.125501	0.080911	-0.124655	-0.035274	-0.038286	-0.063858	-0.103052	-0.008038	0.063063	-0.005915	-0.161125	0.117736	0.019007	-0.068993	-0.188242	-0.058609	-0.158079	-0.116816	-0.085272	-0.087463	-0.182217	-0.080602	0.172124	0.077826	0.076976	0.047286	0.027431	
/base/popstra/celebrity/friendship./base/popstra/friendship/participant	0.011665	0.015369	-0.019874	0.012892	-0.021440	0.000850	-0.000017	-0.002079	0.006540	-0.002198	0.007083	0.002822	0.008302	0.005462	-0.003009	0.008822	0.012671	-0.002582	0.009878	-0.016812	0.009708	0.004646	0.008686	-0.015313	-0.000040	-0.012382	0.006580	0.017017	0.002124	0.018235	-0.002282	-0.023472	0.009423	-0.014381	0.001762	-0.001875	0.012085	0.007175	-0.006056	-0.022574	-0.013262	0.007525	-0.004162	-0.014536	-0.004747	-0.000725	0.013962	0.007454	-0.010147	-0.015794	0.012058	-0.005329	-0.003772	-0.014895	0.010758	-0.016209	0.022996	0.009258	-0.019909	-0.009967	0.009450	-0.000967	0.016188	-0.025047	0.001610	0.005739	-0.015164	-0.012249	-0.001093	-0.014131	0.005021	0.004851	0.011430	0.018598	-0.008884	-0.017603	-0.004713	-0.001106	0.008770	0.002518	-0.005973	0.008771	-0.017256	-0.001403	-0.034889	0.025537	0.014629	-0.007817	-0.005764	0.015069	-0.000412	-0.015061	-0.005975	0.014309	0.004253	-0.011983	0.001148	0.016872	-0.016347	0.028462	
/fictional_universe/fictional_character/occupation	-0.042619	-0.041884	0.012647	-0.057033	-0.020320	-0.032038	0.065180	0.000854	-0.005034	-0.055925	0.045132	-0.039992	0.077333	0.064012	-0.012791	0.017144	-0.004585	-0.028454	0.045067	0.010072	0.047288	-0.074107	-0.002840	0.051741	-0.039520	-0.033121	-0.041504	0.033109	0.014939	0.066287	-0.015018	-0.033071	0.038518	0.023694	0.034782	-0.018353	-0.020928	0.034822	0.065171	0.045968	0.011233	0.085938	-0.064890	0.020264	0.059396	0.018983	0.061160	0.069943	0.026810	-0.058331	-0.010555	-0.005355	-0.060922	0.069209	-0.059993	-0.013735	-0.068764	0.034124	0.018338	-0.066339	-0.049860	-0.095715	-0.023580	0.015845	-0.020094	-0.046227	0.042636	0.014905	-0.063003	-0.061546	-0.007751	0.041131	0.044084	0.074798	-0.111672	0.037111	0.053211	-0.030785	-0.037277	0.048023	0.067853	-0.000279	-0.027501	-0.050187	-0.041664	0.102736	-0.010381	-0.060541	0.035965	-0.045844	-0.012113	0.020730	-0.040603	-0.116778	0.107571	-0.047774	0.029946	0.015116	0.039418	-0.026485	
/education/field_of_study/students_majoring./education/education/institution	-0.074516	-0.155241	-0.087791	0.108880	-0.048884	-0.024315	-0.016172	0.124252	-0.073333	0.206559	0.070005	0.010666	-0.082867	-0.054045	-0.148087	-0.149004	-0.006771	0.149587	-0.018929	0.156440	0.066817	0.065416	-0.139252	-0.138469	-0.082977	-0.082794	-0.073344	0.076914	0.150967	0.057726	0.095788	0.121136	-0.111713	0.128946	0.171464	-0.093166	0.017872	-0.090382	-0.157258	-0.108452	-0.033280	-0.019331	0.002160	0.128980	0.151739	-0.028883	-0.039845	-0.113191	-0.088605	0.103918	0.138847	-0.117074	0.040559	-0.056697	-0.038733	0.089816	-0.039078	0.113516	-0.031114	-0.021590	-0.153457	0.040915	-0.041019	-0.096862	0.147661	-0.089434	0.114055	-0.049079	0.053344	-0.127574	-0.006162	0.013914	0.075213	-0.027941	0.120470	-0.110937	-0.131109	-0.105828	0.011665	-0.068942	0.066312	0.057420	-0.081213	0.130246	0.156814	0.137158	-0.052509	0.026839	0.076502	-0.121905	-0.136488	-0.128848	0.133296	0.033373	0.134591	0.168427	0.118453	-0.009836	0.097182	0.104981	
/business/business_operation/industry	0.003702	0.196624	-0.046334	0.020099	0.066767	-0.042322	0.105067	-0.065649	-0.010526	-0.217473	-0.038945	0.086763	-0.105387	-0.088425	-0.014706	0.126866	-0.132786	-0.036147	0.162411	0.089551	0.099400	0.082752	-0.033808	0.017863	-0.025939	0.171310	-0.158418	-0.121337	-0.054822	0.060239	0.003321	0.042019	0.054269	-0.129094	-0.154222	0.103409	0.038473	-0.092819	0.126225	0.068188	-0.041822	0.127814	-0.152456	0.035476	0.016114	-0.049114	0.101435	-0.086588	0.088635	-0.088538	0.046806	0.058285	0.028118	0.077342	0.091452	-0.081524	0.036044	0.040645	0.165763	-0.024357	0.159222	-0.013099	0.028218	0.059463	-0.074877	0.016841	-0.007020	0.024530	-0.051516	0.171410	-0.047864	0.002480	-0.076066	-0.024994	-0.229236	0.073513	0.205679	0.094612	0.134865	0.086784	0.008600	0.044952	-0.131360	0.001357	-0.137423	-0.025711	0.067498	-0.165922	0.019717	0.060138	0.022069	-0.031146	0.084312	0.252458	-0.150835	-0.185460	-0.141704	0.029120	-0.160934	-0.076358	
/award/award_category/winners./award/award_honor/award_winner	-0.021465	0.100741	-0.072465	0.044733	-0.033484	-0.050346	0.030635	0.011153	0.106246	-0.076287	0.101302	-0.139552	-0.082291	0.096372	-0.058498	0.106455	-0.098870	0.143641	-0.086297	-0.224064	-0.117660	0.151944	0.050788	-0.120546	-0.111496	-0.034209	0.000358	-0.105356	0.047308	-0.003421	-0.057299	-0.111530	-0.018360	-0.035648	-0.091670	0.114722	-0.166065	0.014556	-0.000799	0.061825	-0.089615	0.125051	0.136427	0.044390	0.019186	0.048281	-0.005407	0.202173	0.092427	0.105757	0.198560	-0.111908	0.085126	-0.071275	0.118124	0.241171	0.045633	0.109196	-0.059737	0.063719	-0.122701	0.037737	-0.038450	-0.042126	0.096092	0.039441	-0.117079	-0.107755	-0.068070	-0.202936	-0.104355	0.046974	0.073568	0.044520	0.020286	0.049282	0.115367	-0.032693	0.076108	-0.027965	0.036643	0.069099	0.099177	0.093742	-0.092385	0.173977	-0.001896	-0.093980	-0.067180	-0.088552	0.061968	0.201602	-0.205241	-0.083447	0.106182	0.050483	0.084189	0.147027	-0.126922	0.072078	
/award/award_winner/awards_won./award/award_honor/ceremony	0.043428	-0.130772	-0.064553	-0.094068	0.105244	0.174090	0.112734	0.113958	-0.115035	0.056908	0.024595	0.195160	0.148745	0.024817	-0.042970	-0.090003	-0.125418	-0.062679	-0.022738	0.166966	0.044523	-0.023240	-0.109731	0.146864	0.176390	-0.022567	-0.152770	-0.025851	0.077416	-0.010988	0.020555	-0.017524	0.085093	-0.062038	0.133431	-0.011923	0.078571	0.080716	0.066458	-0.118285	-0.056257	0.027227	-0.092242	0.008090	0.083639	-0.044459	-0.042007	-0.073546	-0.022045	-0.116920	0.021677	0.032473	-0.143027	0.046605	-0.038564	-0.163817	0.043051	-0.085982	-0.006657	0.071648	0.067000	0.093838	-0.073302	0.089471	-0.164801	-0.091316	0.083545	0.128663	0.139460	0.071826	0.192317	0.092185	0.088122	-0.023277	0.132643	-0.195575	0.018400	0.151751	-0.019293	0.088730	-0.099527	-0.147471	-0.102998	0.017480	-0.007358	-0.169549	0.017716	0.114599	0.012585	-0.101689	-0.116770	-0.137478	0.100739	0.152041	-0.097218	-0.197386	-0.022411	-0.147774	-0.056672	-0.061622	
/location/hud_foreclosure_area/hhuniv./measurement_unit/dated_integer/source	0.085383	0.032686	-0.021580	-0.127509	-0.169843	-0.125485	-0.069899	-0.102167	-0.066864	-0.125688	-0.089645	0.000688	-0.043931	-0.205591	0.133873	0.130819	0.116156	0.134034	-0.120186	0.105925	0.023324	-0.123071	0.216625	-0.028702	-0.003656	0.108096	0.071782	0.129557	0.196010	-0.030325	-0.068364	0.019693	0.054559	0.029896	-0.079197	-0.101444	-0.090388	0.127739	-0.056488	0.019452	0.144508	-0.000751	-0.111789	-0.101881	0.111150	-0.061812	-0.193281	0.135018	-0.161194	0.074455	0.076907	-0.011863	-0.149585	0.004499	-0.078537	-0.092220	-0.014165	-0.146677	-0.128101	-0.091378	0.052887	0.064738	0.039816	-0.011851	0.130290	0.059483	-0.092025	0.104584	0.091532	-0.140084	0.046293	-0.082876	0.071541	-0.066437	0.073660	0.087561	-0.041667	-0.075564	0.009680	0.111980	0.042444	0.133674	0.052771	0.050190	-0.007356	-0.077933	0.124009	-0.089436	-0.172323	0.115796	-0.155372	0.043662	0.093604	0.083630	-0.112699	0.044248	0.128006	0.041460	-0.142469	-0.025041	
/location/us_county/hud_county_place	-0.025048	-0.034745	-0.081980	0.085241	0.132077	0.006497	-0.033691	-0.017911	0.007442	0.091936	-0.028416	0.060921	-0.026209	-0.077507	0.029376	0.046873	0.039648	0.046766	-0.026008	0.020731	-0.019392	-0.027205	-0.087509	-0.038422	0.015092	0.021209	0.046826	-0.052238	0.052177	0.022054	-0.043356	-0.020434	0.043314	0.027391	-0.059850	-0.014325	-0.011740	0.017148	-0.047475	-0.022228	0.032826	-0.037543	-0.013668	0.008870	0.042816	-0.018991	0.131195	0.004146	-0.057021	-0.045544	0.029292	0.040029	0.020499	0.019618	-0.061739	0.033433	0.042834	0.009962	-0.029141	0.018422	-0.009122	-0.008369	-0.106543	0.014992	-0.098592	-0.051360	0.032582	-0.026807	-0.034133	-0.044672	-0.086637	0.070344	-0.031763	0.098484	-0.037080	-0.055409	-0.072735	-0.026737	0.015429	0.012552	-0.037947	0.021279	0.141328	0.038749	0.039251	0.018421	0.009771	0.055467	0.026500	-0.039847	0.068683	-0.047090	0.009887	0.034984	0.006334	0.026370	0.025052	0.100841	0.013423	0.058102	
/location/statistical_region/gni_in_ppp_dollars./measurement_unit/dated_money_value/currency	0.136492	-0.109776	-0.001306	0.002727	-0.012075	0.081209	-0.032796	-0.017905	0.102142	0.056863	0.068884	0.068812	0.031024	0.053626	0.094382	-0.075497	0.092687	0.003899	-0.071312	0.124740	-0.050174	0.070165	-0.085111	0.009178	0.025131	-0.015513	0.050065	0.027457	0.035645	0.046152	0.083945	0.082334	-0.040206	0.049593	0.014192	0.066472	0.079182	0.019703	0.001654	0.163658	0.123694	-0.132463	0.022925	0.031424	-0.077301	0.020311	-0.024435	0.152017	-0.006418	-0.066090	-0.019797	0.107055	0.092442	-0.007813	0.149622	0.054770	0.140118	-0.012149	-0.112267	-0.104093	0.017812	0.147654	0.060851	0.022006	0.137110	-0.046476	0.076491	-0.106429	-0.238573	-0.069702	0.026829	0.068512	-0.150716	0.025554	0.037994	0.069712	-0.035820	-0.052292	-0.052635	0.017409	0.103961	0.189306	0.039220	0.156627	0.129073	-0.060799	0.013624	0.012870	0.090441	0.064323	-0.074844	0.016004	0.015707	-0.025363	0.120311	0.098550	0.015803	-0.006708	0.021516	-0.109011	
/people/person/nationality	-0.078615	-0.082688	-0.089446	-0.064507	-0.070418	0.152164	0.074174	0.218212	-0.139157	-0.059294	-0.202798	-0.014150	0.019656	-0.045840	-0.164075	-0.055242	-0.055600	0.019607	0.060354	-0.061386	0.033660	-0.134054	0.020687	-0.103327	-0.049484	0.074501	0.012446	-0.069134	0.037046	0.175382	-0.066889	0.011341	-0.027383	0.004166	0.089745	-0.060126	0.011267	-0.063107	-0.132260	-0.028309	0.162152	0.018783	-0.126073	-0.125924	0.104647	-0.094090	-0.118584	-0.038501	0.036267	-0.030953	-0.112217	0.082712	-0.029195	0.065322	-0.113602	-0.010298	-0.153726	0.097931	0.024729	-0.092632	0.086141	0.156660	-0.006972	-0.055649	-0.222318	0.134845	0.040433	0.112983	0.079093	0.123800	0.079919	-0.070334	-0.006071	-0.038890	0.223539	-0.027603	0.058271	0.076957	-0.132961	-0.215913	-0.057314	-0.016037	0.072913	-0.164758	0.080622	-0.171957	-0.022129	-0.105046	-0.108630	-0.150700	-0.072578	-0.095356	-0.068074	-0.020335	-0.137557	-0.050858	-0.094942	-0.148966	0.097586	-0.140147	
/sports/sports_team/roster./baseball/baseball_roster_position/position	0.057604	0.045162	0.056012	-0.056348	-0.105103	-0.101179	-0.009237	-0.087545	-0.039639	0.034708	-0.007682	0.002068	0.033469	0.078001	0.046817	0.104801	0.061689	-0.049396	-0.007100	0.059367	-0.067701	-0.008170	0.019187	0.035217	-0.053342	-0.037586	-0.021751	0.086582	0.056755	-0.018300	0.075053	-0.019269	0.082692	0.047476	-0.042956	0.045844	0.010446	0.034783	-0.019816	0.007557	0.005660	-0.006833	-0.065414	0.021180	-0.033079	0.066320	0.067168	0.041396	-0.022165	0.060683	0.055705	-0.021307	-0.023033	0.099416	-0.009629	0.050866	0.060005	-0.044409	0.055815	-0.029785	-0.004003	-0.060351	-0.052568	-0.054927	-0.043934	0.075574	0.067556	0.041154	-0.010105	-0.037676	-0.031026	0.006533	-0.012717	0.012005	0.036964	-0.000863	0.070313	0.069567	-0.049640	-0.052933	-0.047303	-0.062301	0.023963	0.009959	-0.062400	-0.024776	0.025660	-0.102143	0.052845	0.068282	-0.082945	0.037087	0.021694	0.075776	0.042367	0.045801	0.049467	-0.077343	-0.058538	-0.040031	
/music/performance_role/regular_performances./music/group_membership/member	0.108196	-0.061409	-0.110655	0.169695	0.043529	-0.175223	-0.021493	0.027453	0.168706	-0.055506	0.023321	-0.059865	-0.106969	0.085597	-0.035096	-0.187596	0.023433	-0.063219	0.127307	0.035890	0.040877	0.151676	0.068774	0.182515	0.024534	0.106223	0.150409	0.037443	0.103063	-0.010939	-0.023351	0.063772	-0.049728	-0.097689	0.081586	0.001246	-0.116970	0.054362	-0.141017	0.037192	-0.116609	-0.169227	-0.086213	0.136054	0.160478	0.019213	0.015412	-0.083335	-0.025527	0.173511	0.027211	-0.091633	0.109757	-0.016468	0.157996	0.047267	0.008939	-0.174119	-0.066634	0.075354	-0.110410	0.074128	0.042458	0.100535	0.086067	0.028675	0.030469	-0.056781	0.015791	-0.144979	0.109137	-0.083622	0.011539	-0.079265	-0.053083	-0.049266	-0.062405	-0.105818	0.105672	0.099557	-0.172093	-0.082938	-0.107617	-0.130570	-0.172396	0.048459	0.045940	-0.055410	0.111679	0.104678	0.158843	0.227624	-0.135276	0.049586	0.121764	0.112692	-0.059294	0.081746	0.088070	-0.075668	
/base/nobelprizes/nobel_prize_winner/nobel_honor./base/nobelprizes/nobel_honor/subject_area	0.065042	-0.039784	0.099297	-0.111016	0.038694	0.020366	0.044305	0.005398	-0.033786	0.006747	-0.060619	-0.007101	0.042945	0.023396	0.000059	-0.013976	-0.041450	-0.027424	-0.052585	-0.034561	0.101490	-0.130535	0.050807	-0.037016	0.098548	0.031948	-0.061495	0.006154	-0.019009	0.003210	-0.049384	0.095297	0.036200	0.048434	-0.004585	-0.030560	-0.000869	-0.050480	0.061607	0.034371	0.083615	0.058649	-0.103528	0.030043	-0.054244	-0.040355	0.135606	0.005147	0.108044	-0.070118	-0.131926	0.091113	-0.042351	0.106787	-0.066539	0.049118	-0.074238	0.015746	0.049966	-0.054351	0.135278	0.087259	-0.010844	-0.048885	-0.118886	0.084480	-0.005666	0.073295	-0.007772	0.024094	-0.033673	-0.077129	-0.036111	-0.003376	-0.033973	0.000225	0.028021	0.032881	-0.124961	-0.062347	-0.043014	-0.105413	0.003056	-0.073357	0.021894	-0.007533	0.003370	-0.091151	-0.061748	-0.002617	0.067766	-0.026787	-0.157467	0.009228	-0.082802	-0.064663	-0.139854	0.033568	0.045108	0.040792	
/people/cause_of_death/people	0.059681	0.075194	-0.005850	-0.043630	0.078505	0.066433	0.056413	0.019799	-0.006778	-0.118820	-0.121472	-0.148713	0.062427	-0.132941	0.135550	0.163671	-0.078128	0.069650	-0.067946	0.075743	0.061669	0.181039	-0.039532	0.054914	-0.114147	0.162824	0.088775	0.057537	-0.107911	0.035037	-0.039420	0.037436	-0.144397	-0.060239	0.034578	-0.025331	0.121643	0.141673	0.089157	0.175482	-0.142256	0.093089	0.104790	0.026290	0.049315	-0.011835	-0.062695	0.011787	-0.067958	-0.006545	0.047143	-0.040761	0.163307	-0.180419	0.061730	0.093078	0.186840	0.027509	0.099647	0.177249	-0.073354	-0.165042	-0.043526	-0.000002	0.118356	0.058117	-0.070266	-0.085397	-0.109686	-0.143628	-0.169987	-0.133015	0.134550	-0.128915	-0.059356	0.136673	-0.010850	-0.084168	0.073327	0.149453	-0.049080	0.142753	-0.032062	-0.082382	-0.042820	-0.065184	0.007765	0.118254	0.118279	-0.042291	-0.074112	0.132113	-0.024517	0.151177	0.151991	0.058551	0.179060	0.032575	-0.047669	-0.076223	
/tv/tv_program/languages	0.119556	0.205072	-0.095606	-0.089304	0.209452	-0.080048	-0.030442	-0.035427	-0.033488	-0.038623	-0.024441	-0.175347	0.019869	0.036361	0.139829	-0.016449	0.115376	0.017778	0.106585	-0.170987	-0.139963	-0.152093	0.127315	0.039447	-0.044380	0.056808	0.046967	0.059906	-0.062424	-0.043580	-0.081252	0.113220	-0.070832	0.105074	-0.079946	-0.127536	-0.189800	0.209007	0.178807	0.082045	0.129350	-0.008297	-0.036482	-0.076776	0.030852	-0.055964	0.185251	0.098579	0.019596	-0.133646	-0.192600	0.031544	-0.059068	-0.066344	0.115961	-0.081176	0.023850	-0.078278	0.106546	0.003837	-0.008294	0.021635	0.093089	-0.045041	-0.172029	-0.031840	-0.018627	-0.017796	-0.168790	-0.194994	-0.129861	0.175316	0.101061	-0.054541	-0.031130	0.007360	0.077196	-0.123944	-0.141568	0.036133	-0.161193	0.015100	-0.048859	0.096594	-0.093612	-0.004943	-0.011910	-0.012682	0.019816	0.160323	0.001810	0.016971	0.015817	0.086093	-0.043641	-0.086514	-0.096819	-0.006921	0.120677	-0.090149	
/user/alexander/philosophy/subject/philosophers	-0.045559	0.047642	-0.029625	0.048126	-0.124389	-0.048677	0.064108	0.021248	0.002635	0.034443	0.095865	0.048613	-0.065445	-0.051999	0.041535	-0.035092	-0.012170	-0.066656	-0.087737	0.002827	-0.025112	0.061616	-0.085871	0.048639	0.041846	-0.114544	0.086629	0.059152	-0.047303	-0.008774	0.101988	0.039521	-0.079870	-0.037334	0.065052	-0.031767	0.088261	0.121260	-0.125352	0.038779	-0.082106	-0.020520	0.027651	-0.051533	0.025569	0.034517	-0.040690	-0.084325	-0.038810	0.056249	0.054175	-0.051903	0.095083	-0.034818	0.035205	0.066115	-0.067438	0.083565	-0.157686	0.092179	-0.078361	-0.133092	-0.021144	-0.030389	0.057493	-0.073874	0.009163	0.102535	-0.133365	-0.018240	-0.066359	0.069689	0.055039	-0.135261	0.034202	-0.052559	0.005622	-0.102175	0.030909	0.033901	0.068234	0.086389	-0.068410	0.023545	-0.095217	0.046028	0.071473	0.103749	0.047037	0.030509	0.011250	-0.094527	0.074879	0.027423	0.146589	-0.031601	0.127986	-0.061727	-0.042184	-0.083325	
/common/annotation_category/annotations./common/webpage/topic	0.094220	-0.099221	0.023805	0.114712	0.030051	0.067813	-0.040150	0.081819	0.141291	0.150200	0.026124	0.062666	-0.081298	0.074361	0.068963	0.026479	0.034465	-0.086401	-0.094102	0.104888	-0.018405	-0.151922	-0.162046	0.087787	0.061477	0.105838	0.130644	-0.107201	0.024358	-0.039825	0.120866	-0.058980	0.043447	-0.110295	-0.026555	-0.095849	-0.125645	0.072168	-0.116260	0.133250	0.132583	-0.142208	0.140932	-0.075143	0.162548	-0.121825	0.069480	-0.152064	-0.144315	0.098582	0.137518	0.106368	0.086443	-0.090840	0.080976	0.068844	0.056071	-0.066496	0.112326	0.116117	-0.110732	0.054879	-0.108163	0.069525	0.119267	-0.042683	-0.098057	0.109063	0.090633	0.048278	-0.109804	-0.064330	0.108058	0.096040	-0.124430	0.146026	0.062645	0.062672	0.149698	0.052497	0.149597	-0.010182	-0.025350	-0.146946	0.023727	0.086897	-0.116387	0.148204	-0.023161	-0.143688	0.121202	-0.132284	-0.069197	-0.148019	0.105646	-0.055243	-0.066901	-0.127169	0.052641	-0.127138	
/music/genre/parent_genre	-0.002768	0.062625	0.006778	-0.013675	-0.020526	-0.020715	0.005935	0.006886	-0.087141	-0.045184	0.011226	-0.018197	0.002086	-0.019554	-0.007569	-0.000425	0.010245	-0.034022	0.032056	0.013547	-0.007995	-0.030179	0.015515	0.036912	0.012879	0.020773	0.007636	-0.078589	-0.019961	-0.057967	-0.020276	0.027118	-0.008017	-0.047999	-0.091464	0.042891	-0.059858	-0.036951	0.018022	0.057726	-0.002630	0.037387	-0.020674	0.014127	0.091931	0.024569	-0.012719	-0.020685	0.031291	-0.010870	-0.032453	-0.046007	-0.117956	-0.011452	-0.012121	0.016025	0.010969	0.022219	-0.026356	-0.010347	0.027026	-0.068941	-0.037417	-0.004038	-0.003015	0.052495	0.000794	-0.005963	0.005793	0.032948	-0.030078	0.254087	-0.007033	-0.045515	-0.031582	0.053635	0.028002	0.149535	-0.042921	-0.026857	0.022966	0.029932	0.023908	-0.031934	0.057110	0.014478	-0.028932	0.021985	0.045418	0.008981	-0.003495	0.022171	0.004021	0.025250	0.056754	0.019021	0.020269	-0.044816	0.022898	0.030421	
/base/popstra/celebrity/breakup./base/popstra/breakup/participant	-0.002176	-0.011821	0.014730	-0.019823	0.003412	0.019144	0.003442	-0.011350	-0.007425	-0.002643	-0.011976	-0.003596	-0.000126	0.010121	0.004747	-0.026694	-0.019750	0.005095	0.005271	-0.003299	0.008178	-0.000689	-0.001994	-0.012115	-0.000098	0.023973	0.006692	0.021696	-0.015269	0.002935	-0.017958	-0.013356	0.003279	-0.018498	-0.005903	-0.000193	0.011206	0.017524	-0.007326	0.026353	-0.008460	0.018546	0.003918	-0.005058	-0.006699	-0.007423	0.002215	-0.005084	0.002033	0.007626	0.006660	0.010321	0.014842	-0.006783	0.002895	0.001446	-0.089931	0.008029	-0.000367	0.001047	-0.004648	-0.013738	0.008153	0.022446	0.021387	0.001348	0.104496	-0.023068	-0.013554	-0.007735	0.008558	0.003056	0.002322	-0.016459	0.013223	-0.012781	-0.023575	0.023925	0.005035	-0.020144	-0.038234	0.009989	0.023433	0.012924	0.008047	-0.003824	0.018246	-0.021287	0.021358	-0.000335	-0.000607	0.004004	0.000917	-0.020761	-0.000115	0.001155	-0.038170	-0.005527	-0.002463	0.032277	
/influence/influence_node/influenced	0.013257	-0.121720	-0.186671	0.031165	0.033220	0.034898	-0.028905	-0.005896	-0.008728	0.043783	0.012337	0.050161	0.010481	0.035797	0.014661	-0.197329	0.048477	0.080034	-0.022789	-0.003972	-0.025109	0.000435	0.014058	-0.034092	0.007218	-0.058194	0.015001	-0.013633	0.020450	-0.036642	-0.011751	-0.027419	-0.048642	0.009987	-0.018935	-0.031349	-0.037092	0.001175	0.022213	0.028926	-0.030444	-0.025177	0.001914	0.023547	-0.001830	-0.055149	0.026055	-0.013044	0.022001	-0.009420	0.010995	-0.035621	0.053100	0.021036	0.308477	0.010471	-0.009269	0.042597	-0.026082	0.025548	-0.003277	0.017203	0.053905	0.019542	0.046276	-0.016962	0.044849	0.044774	-0.029456	-0.006956	0.003799	-0.025538	-0.035925	-0.006751	0.035608	0.017879	0.015310	-0.038099	-0.023712	-0.012273	-0.022101	0.029555	0.029832	0.017590	0.008463	0.041911	-0.004155	0.035507	-0.041918	0.128443	-0.016033	-0.002066	-0.043490	-0.113070	-0.022167	0.016630	0.014654	0.022718	-0.043691	0.047282	
/location/country/capital	-0.067054	-0.085558	0.069173	0.039075	0.233468	0.013573	-0.028659	-0.057785	0.029934	0.125056	0.021281	0.049655	-0.026032	-0.052985	0.027234	-0.001270	0.028940	-0.156402	-0.009644	0.027426	0.026062	-0.005151	-0.147610	-0.138277	0.018617	-0.000989	0.026152	0.101806	-0.008879	-0.089770	-0.062845	0.009715	0.074178	-0.091486	-0.044376	0.046048	0.041592	0.049379	-0.018908	-0.026110	-0.005889	-0.094649	-0.016248	-0.106979	-0.007525	0.000013	0.124874	0.032010	0.060945	-0.006664	0.058967	0.109083	0.006874	0.015433	-0.100292	0.024335	-0.100942	-0.072765	-0.037978	-0.017716	-0.042958	0.042840	-0.133071	0.080529	0.018090	0.002014	-0.046460	-0.079633	-0.036681	-0.055693	-0.020758	0.055386	-0.009668	0.094483	-0.060072	-0.108449	-0.084216	-0.005565	0.013545	0.070067	0.070886	-0.000678	0.205268	0.092848	0.032265	0.054704	-0.051573	0.076229	0.108043	0.018965	0.065931	-0.021923	0.055580	-0.041499	0.031810	0.032586	-0.002229	0.132411	0.002691	0.106825	
/film/special_film_performance_type/film_performance_type./film/performance/film	-0.009856	-0.086221	-0.186500	-0.054749	0.014200	0.010960	-0.181984	0.136605	0.109272	0.074915	-0.147755	0.028121	-0.035345	-0.025303	-0.125717	0.111297	-0.064213	0.070542	-0.000311	0.041516	0.067203	0.109853	-0.024670	-0.109369	-0.073669	-0.066160	-0.163827	0.077132	0.036901	0.148111	-0.066200	0.029920	-0.132374	0.018661	0.041959	0.124469	0.068239	-0.126452	-0.131926	-0.040597	0.084737	-0.192250	-0.031936	-0.041985	0.024899	0.082533	-0.040492	-0.140743	0.108240	-0.083168	-0.059657	0.052315	0.061921	-0.002188	-0.115483	-0.241841	-0.059993	-0.030079	-0.077970	0.014234	-0.114254	0.180009	0.171831	0.182623	-0.216652	-0.031942	0.022324	-0.090708	-0.026386	-0.036557	0.121029	-0.032214	-0.032299	-0.015860	0.082636	0.208329	0.098211	-0.019888	0.078772	0.054713	0.088130	0.035054	-0.098553	-0.048204	-0.032658	-0.116650	0.000013	-0.190391	-0.037896	0.082112	-0.070363	-0.108393	-0.013854	-0.113004	-0.087067	-0.034299	0.180314	-0.159365	-0.122138	-0.105787	
/olympics/olympic_participating_country/athletes./olympics/olympic_athlete_affiliation/sport	0.080368	-0.029672	-0.047152	-0.001386	0.158474	-0.102008	0.054124	-0.173216	0.124092	0.078100	0.153180	0.115333	-0.178401	0.154288	-0.081924	-0.045570	-0.013231	-0.042422	0.005342	0.176553	0.068203	0.126603	-0.039305	-0.028854	0.109528	-0.129331	0.076051	0.038002	-0.017512	-0.101228	0.094921	-0.144325	-0.050666	0.053564	0.144698	0.057132	0.032695	0.139664	0.167653	0.137159	0.094533	-0.119044	0.112151	-0.002153	-0.137948	0.036639	0.098723	0.059594	-0.009056	-0.079369	0.135305	0.120266	-0.131763	0.137659	0.116345	0.023671	0.098256	-0.115715	-0.027564	-0.057893	0.139473	0.108627	-0.024137	0.139197	0.064270	0.023461	0.186307	-0.101665	-0.130041	0.072144	-0.035809	0.137046	-0.014002	0.104875	-0.050327	0.087581	-0.063785	0.084523	-0.037044	0.208409	0.040716	0.110643	-0.138404	0.192115	0.128383	0.035421	-0.038948	0.050691	0.104818	0.081327	0.030665	-0.060045	-0.013138	-0.098142	-0.030818	-0.089137	-0.065660	0.146357	-0.023241	-0.063483	
